{"learner":{"attributes":{},"feature_names":["nJet","dijet_pt","dijet_dphi","Jet_eta_0","Jet_eta_1","Jet_eta_2","Jet_eta_3","Jet_phi_0","Jet_phi_1","Jet_phi_2","Jet_phi_3","Jet_scaled_pt_0","Jet_scaled_pt_1","Jet_scaled_pt_2","Jet_scaled_pt_3"],"feature_types":[],"gradient_booster":{"model":{"gbtree_model_param":{"num_parallel_tree":"1","num_trees":"400"},"iteration_indptr":[0,1,2,3,4,5,6,7,8,9,10,11,12,13,14,15,16,17,18,19,20,21,22,23,24,25,26,27,28,29,30,31,32,33,34,35,36,37,38,39,40,41,42,43,44,45,46,47,48,49,50,51,52,53,54,55,56,57,58,59,60,61,62,63,64,65,66,67,68,69,70,71,72,73,74,75,76,77,78,79,80,81,82,83,84,85,86,87,88,89,90,91,92,93,94,95,96,97,98,99,100,101,102,103,104,105,106,107,108,109,110,111,112,113,114,115,116,117,118,119,120,121,122,123,124,125,126,127,128,129,130,131,132,133,134,135,136,137,138,139,140,141,142,143,144,145,146,147,148,149,150,151,152,153,154,155,156,157,158,159,160,161,162,163,164,165,166,167,168,169,170,171,172,173,174,175,176,177,178,179,180,181,182,183,184,185,186,187,188,189,190,191,192,193,194,195,196,197,198,199,200,201,202,203,204,205,206,207,208,209,210,211,212,213,214,215,216,217,218,219,220,221,222,223,224,225,226,227,228,229,230,231,232,233,234,235,236,237,238,239,240,241,242,243,244,245,246,247,248,249,250,251,252,253,254,255,256,257,258,259,260,261,262,263,264,265,266,267,268,269,270,271,272,273,274,275,276,277,278,279,280,281,282,283,284,285,286,287,288,289,290,291,292,293,294,295,296,297,298,299,300,301,302,303,304,305,306,307,308,309,310,311,312,313,314,315,316,317,318,319,320,321,322,323,324,325,326,327,328,329,330,331,332,333,334,335,336,337,338,339,340,341,342,343,344,345,346,347,348,349,350,351,352,353,354,355,356,357,358,359,360,361,362,363,364,365,366,367,368,369,370,371,372,373,374,375,376,377,378,379,380,381,382,383,384,385,386,387,388,389,390,391,392,393,394,395,396,397,398,399,400],"tree_info":[0,0,0,0,0,0,0,0,0,0,0,0,0,0,0,0,0,0,0,0,0,0,0,0,0,0,0,0,0,0,0,0,0,0,0,0,0,0,0,0,0,0,0,0,0,0,0,0,0,0,0,0,0,0,0,0,0,0,0,0,0,0,0,0,0,0,0,0,0,0,0,0,0,0,0,0,0,0,0,0,0,0,0,0,0,0,0,0,0,0,0,0,0,0,0,0,0,0,0,0,0,0,0,0,0,0,0,0,0,0,0,0,0,0,0,0,0,0,0,0,0,0,0,0,0,0,0,0,0,0,0,0,0,0,0,0,0,0,0,0,0,0,0,0,0,0,0,0,0,0,0,0,0,0,0,0,0,0,0,0,0,0,0,0,0,0,0,0,0,0,0,0,0,0,0,0,0,0,0,0,0,0,0,0,0,0,0,0,0,0,0,0,0,0,0,0,0,0,0,0,0,0,0,0,0,0,0,0,0,0,0,0,0,0,0,0,0,0,0,0,0,0,0,0,0,0,0,0,0,0,0,0,0,0,0,0,0,0,0,0,0,0,0,0,0,0,0,0,0,0,0,0,0,0,0,0,0,0,0,0,0,0,0,0,0,0,0,0,0,0,0,0,0,0,0,0,0,0,0,0,0,0,0,0,0,0,0,0,0,0,0,0,0,0,0,0,0,0,0,0,0,0,0,0,0,0,0,0,0,0,0,0,0,0,0,0,0,0,0,0,0,0,0,0,0,0,0,0,0,0,0,0,0,0,0,0,0,0,0,0,0,0,0,0,0,0,0,0,0,0,0,0,0,0,0,0,0,0,0,0,0,0,0,0,0,0,0,0,0,0,0,0,0,0,0,0,0,0,0,0,0,0,0,0,0,0,0,0,0,0,0,0,0,0,0,0,0,0,0,0],"trees":[{"base_weights":[-1.2245841E-1,-1.0171148E-1,-3.0811685E-1,-1.13996625E-1,4.0955637E-2,-6.2459046E-1,5.8674894E-2,-4.367241E-1,7.690105E-2,-1.50051E-1,1.2652165E-1,-8.598667E-1,-4.7548154E-1,-6.0572144E-2,2.196276E-1,-5.708058E-1,-2.3640652E-1,-6.314263E-2,1.6975796E-1,-4.9167942E-2,-2.1384507E-1,2.345362E-1,5.6915093E-2,-1E0,-7.6250476E-1,-3.9370927E-1,-7.3520267E-1,-1.4481437E-1,1.0787664E-1,9.516345E-2,3.4878352E-1,-8.706081E-2,-5.1519692E-2,-1.1748588E-2,-3.9088387E-2,-2.3386879E-2,2.4430796E-3,2.5947823E-3,2.7946701E-2,-1.435561E-2,6.8131345E-3,-2.8180657E-2,-9.451549E-3,2.7410552E-2,8.041539E-4,3.0584615E-3,1.3444121E-2,-1E-1,-7.882234E-2,-5.4254085E-2,-1E-1,-4.7466744E-2,-2.9703593E-2,-9.317013E-2,-5.761081E-2,-9.505461E-3,-3.300197E-2,2.882534E-2,-1.6784963E-4,2.1283354E-3,2.2999613E-2,5.0996598E-2,1.40246665E-2],"categories":[],"categories_nodes":[],"categories_segments":[],"categories_sizes":[],"default_left":[0,0,0,0,0,0,0,0,0,0,0,0,0,0,0,0,0,0,0,0,0,0,0,0,0,0,0,0,0,0,0,0,0,0,0,0,0,0,0,0,0,0,0,0,0,0,0,0,0,0,0,0,0,0,0,0,0,0,0,0,0,0,0],"id":0,"left_children":[1,3,5,7,9,11,13,15,17,19,21,23,25,27,29,31,33,35,37,39,41,43,45,47,49,51,53,55,57,59,61,-1,-1,-1,-1,-1,-1,-1,-1,-1,-1,-1,-1,-1,-1,-1,-1,-1,-1,-1,-1,-1,-1,-1,-1,-1,-1,-1,-1,-1,-1,-1,-1],"loss_changes":[1.1778174E3,4.821106E2,3.5679553E3,1.5602634E4,3.564976E2,5.780049E2,2.733256E2,2.5278555E3,2.0693691E3,4.339798E1,1.132204E2,1.4479541E2,2.1399487E2,1.1612758E2,9.733908E1,9.3910156E2,6.932947E2,9.48624E2,1.5096394E3,2.9011673E1,3.3451355E1,5.286963E1,1.8695915E1,3.6694336E0,2.5594873E2,5.987549E1,7.445166E1,5.0199608E1,5.3936665E1,3.0759418E1,9.976706E1,0E0,0E0,0E0,0E0,0E0,0E0,0E0,0E0,0E0,0E0,0E0,0E0,0E0,0E0,0E0,0E0,0E0,0E0,0E0,0E0,0E0,0E0,0E0,0E0,0E0,0E0,0E0,0E0,0E0,0E0,0E0,0E0],"parents":[2147483647,0,0,1,1,2,2,3,3,4,4,5,5,6,6,7,7,8,8,9,9,10,10,11,11,12,12,13,13,14,14,15,15,16,16,17,17,18,18,19,19,20,20,21,21,22,22,23,23,24,24,25,25,26,26,27,27,28,28,29,29,30,30],"right_children":[2,4,6,8,10,12,14,16,18,20,22,24,26,28,30,32,34,36,38,40,42,44,46,48,50,52,54,56,58,60,62,-1,-1,-1,-1,-1,-1,-1,-1,-1,-1,-1,-1,-1,-1,-1,-1,-1,-1,-1,-1,-1,-1,-1,-1,-1,-1,-1,-1,-1,-1,-1,-1],"split_conditions":[2.001E0,2.6143163E-1,4.35E-2,3.7277684E-1,4.7955385E-1,2.2074367E-1,4.9229318E-1,2.3078077E-1,4.72225E-1,1.3782647E-1,1.3672744E-1,1.4272523E-1,9.8974444E-2,7.395E-1,3.8922805E-1,1.8318373E-1,1.2155492E-1,2.9489228E-1,3.7259504E-1,4.3447378E-1,3.8184008E-1,2.2619998E0,4.4971192E-1,1.2626357E-1,7.648127E-2,2.0528777E-1,2.941517E-1,1.2219498E-1,1.0631115E-1,6.096232E-1,1.6206637E-1,-8.706081E-2,-5.1519692E-2,-1.1748588E-2,-3.9088387E-2,-2.3386879E-2,2.4430796E-3,2.5947823E-3,2.7946701E-2,-1.435561E-2,6.8131345E-3,-2.8180657E-2,-9.451549E-3,2.7410552E-2,8.041539E-4,3.0584615E-3,1.3444121E-2,-1E-1,-7.882234E-2,-5.4254085E-2,-1E-1,-4.7466744E-2,-2.9703593E-2,-9.317013E-2,-5.761081E-2,-9.505461E-3,-3.300197E-2,2.882534E-2,-1.6784963E-4,2.1283354E-3,2.2999613E-2,5.0996598E-2,1.40246665E-2],"split_indices":[3,13,4,11,11,11,11,12,11,14,14,11,14,4,12,11,13,12,12,11,12,5,12,12,13,12,11,14,13,11,13,0,0,0,0,0,0,0,0,0,0,0,0,0,0,0,0,0,0,0,0,0,0,0,0,0,0,0,0,0,0,0,0],"split_type":[0,0,0,0,0,0,0,0,0,0,0,0,0,0,0,0,0,0,0,0,0,0,0,0,0,0,0,0,0,0,0,0,0,0,0,0,0,0,0,0,0,0,0,0,0,0,0,0,0,0,0,0,0,0,0,0,0,0,0,0,0,0,0],"sum_hessian":[3.05794E5,2.7506E5,3.0734E4,2.53253E5,2.1807E4,1.6498E4,1.4236E4,9.4125E4,1.59128E5,6.746E3,1.5061E4,6.396E3,1.0102E4,8.178E3,6.058E3,5.6382E4,3.7743E4,6.3444E4,9.5684E4,2.615E3,4.131E3,5.9E3,9.161E3,1.567E3,4.829E3,7.687E3,2.415E3,5.452E3,2.726E3,3.087E3,2.971E3,8.817E3,4.7565E4,2.1328E4,1.6415E4,2.1509E4,4.1935E4,4.1408E4,5.4276E4,1.449E3,1.166E3,2.63E3,1.501E3,5.022E3,8.78E2,6.841E3,2.32E3,1.441E3,1.26E2,2.533E3,2.296E3,4.179E3,3.508E3,1.076E3,1.339E3,4.3E3,1.152E3,1.029E3,1.697E3,1.996E3,1.091E3,1.674E3,1.297E3],"tree_param":{"num_deleted":"0","num_feature":"15","num_nodes":"63","size_leaf_vector":"1"}},{"base_weights":[-1.1932407E-1,5.1255774E-1,-3.9183488E-1,8.6040276E-1,-7.3143035E-1,7.717251E-2,-4.7582537E-1,1E0,-6.208805E-1,1E0,-1E0,-1.1605751E-1,3.8787872E-1,4.7605872E-1,-1E0,1E0,4.7647798E-1,-1E0,-8.801132E-3,1E0,-3.680907E-1,2.9000786E-1,-1E0,-6.541493E-1,2.645058E-1,-6.3056403E-1,5.60342E-1,5.9032375E-1,-1E0,-6.710967E-1,-1E0,3.8433578E-2,1E-1,8.4379286E-2,1.1168289E-2,-9.879779E-3,-1E-1,1.1705544E-2,-1E-1,5.912971E-2,1E-1,1E-1,-8.8981576E-2,1E-1,-1E-1,-1E-1,1E-1,-1E-1,-3.199271E-2,-1E-1,3.7033927E-2,5.9583485E-2,-1E-1,-7.612173E-2,6.730127E-2,6.892966E-2,2.292261E-2,-1E-1,1E-1,-8.281641E-3,-1E-1,-4.8949685E-2,-1E-1],"categories":[],"categories_nodes":[],"categories_segments":[],"categories_sizes":[],"default_left":[0,0,0,0,0,0,0,0,0,0,0,0,0,0,0,0,0,0,0,0,0,0,0,0,0,0,0,0,0,0,0,0,0,0,0,0,0,0,0,0,0,0,0,0,0,0,0,0,0,0,0,0,0,0,0,0,0,0,0,0,0,0,0],"id":1,"left_children":[1,3,5,7,9,11,13,15,17,19,21,23,25,27,29,31,33,35,37,39,41,43,45,47,49,51,53,55,57,59,61,-1,-1,-1,-1,-1,-1,-1,-1,-1,-1,-1,-1,-1,-1,-1,-1,-1,-1,-1,-1,-1,-1,-1,-1,-1,-1,-1,-1,-1,-1,-1,-1],"loss_changes":[5.2656902E4,3.9873008E4,8.416418E3,4.2433215E4,4.502337E4,1.9484879E3,1.4798644E5,3.999664E3,8.881365E3,2.0700293E3,2.4603516E2,4.098048E3,2.1864778E3,2.0516246E4,3.8801562E2,9.075E1,1.9562432E3,1.3186719E2,1.47783E3,6.476875E2,8.689293E2,9.620167E2,1.2551953E3,1.3729524E3,1.9315951E3,9.9487054E2,1.585833E3,3.08433E3,2.1319385E3,2.2408564E3,1.3634234E4,0E0,0E0,0E0,0E0,0E0,0E0,0E0,0E0,0E0,0E0,0E0,0E0,0E0,0E0,0E0,0E0,0E0,0E0,0E0,0E0,0E0,0E0,0E0,0E0,0E0,0E0,0E0,0E0,0E0,0E0,0E0,0E0],"parents":[2147483647,0,0,1,1,2,2,3,3,4,4,5,5,6,6,7,7,8,8,9,9,10,10,11,11,12,12,13,13,14,14,15,15,16,16,17,17,18,18,19,19,20,20,21,21,22,22,23,23,24,24,25,25,26,26,27,27,28,28,29,29,30,30],"right_children":[2,4,6,8,10,12,14,16,18,20,22,24,26,28,30,32,34,36,38,40,42,44,46,48,50,52,54,56,58,60,62,-1,-1,-1,-1,-1,-1,-1,-1,-1,-1,-1,-1,-1,-1,-1,-1,-1,-1,-1,-1,-1,-1,-1,-1,-1,-1,-1,-1,-1,-1,-1,-1],"split_conditions":[-5.046E0,4.9963764E1,2.4551852E0,4.133075E-1,2.8503126E-1,5.6549996E-1,3.14304E-1,3.6520638E1,1.4007568E1,2.5665E0,-3.0206854E0,7.437011E1,-2.2619998E0,8.7871765E1,-3.741E0,1.3769999E0,4.35E-2,-2.0879998E0,3.8418957E1,-5.6549996E-1,-1.2615E0,-5.6549996E-1,1.1233029E2,-5.846856E-1,-2.7596853E0,-1.3676857E0,-2.0879998E0,1.5224999E0,8E0,5.342139E1,3.55111E1,3.8433578E-2,1E-1,8.4379286E-2,1.1168289E-2,-9.879779E-3,-1E-1,1.1705544E-2,-1E-1,5.912971E-2,1E-1,1E-1,-8.8981576E-2,1E-1,-1E-1,-1E-1,1E-1,-1E-1,-3.199271E-2,-1E-1,3.7033927E-2,5.9583485E-2,-1E-1,-7.612173E-2,6.730127E-2,6.892966E-2,2.292261E-2,-1E-1,1E-1,-8.281641E-3,-1E-1,-4.8949685E-2,-1E-1],"split_indices":[6,1,2,12,12,6,12,1,1,7,7,1,5,1,5,1,3,4,1,4,3,3,1,9,7,10,3,4,0,1,1,0,0,0,0,0,0,0,0,0,0,0,0,0,0,0,0,0,0,0,0,0,0,0,0,0,0,0,0,0,0,0,0],"split_type":[0,0,0,0,0,0,0,0,0,0,0,0,0,0,0,0,0,0,0,0,0,0,0,0,0,0,0,0,0,0,0,0,0,0,0,0,0,0,0,0,0,0,0,0,0,0,0,0,0,0,0,0,0,0,0,0,0,0,0,0,0,0,0],"sum_hessian":[3.05794E5,9.2141E4,2.13653E5,7.2007E4,2.0134E4,3.245E4,1.81203E5,5.5323E4,1.6684E4,1.0976E4,9.158E3,2.0008E4,1.2442E4,9.0773E4,9.043E4,4.0724E4,1.4599E4,5.203E3,1.1481E4,9.871E3,1.105E3,1.47E2,9.011E3,8.288E3,1.172E4,1.801E3,1.0641E4,8.631E4,4.463E3,3.604E3,8.6826E4,2.43E2,4.0481E4,7.273E3,7.326E3,1.63E2,5.04E3,1.0225E4,1.256E3,3.888E3,5.983E3,2.83E2,8.22E2,5.1E1,9.6E1,8.772E3,2.39E2,3.173E3,5.115E3,7.11E2,1.1009E4,4.86E2,1.315E3,8.35E2,9.806E3,6.7741E4,1.8569E4,3.986E3,4.77E2,3.128E3,4.76E2,5.2322E4,3.4504E4],"tree_param":{"num_deleted":"0","num_feature":"15","num_nodes":"63","size_leaf_vector":"1"}},{"base_weights":[-1.2055096E-1,-1E0,1E0,-6.084713E-1,-1E0,1E0,2.024984E-1,-8.521478E-1,-2.4351415E-1,-1E0,-2.5108013E-1,4.2163664E-1,1E-1,-3.097632E-1,4.035859E-1,-1E0,-4.457096E-1,-6.537331E-2,-5.396503E-1,-1E0,-7.6973253E-1,-8.6467534E-1,-1.7320305E-1,3.4829733E-1,1E0,-8.1352407E-1,-1.9431517E-1,5.539297E-1,1.5101555E-1,-1E-1,-1.0536188E-2,-1.9313483E-2,-8.251154E-2,-2.926431E-3,-5.0867427E-2,7.2351494E-4,-1E-1,-1E-1,-3.6553632E-2,1E-1,-1E-1,7.819148E-2,-1E-1,4.0717445E-2,-3.0065605E-2,7.978367E-2,-8.064217E-2,1E-1,-1.0677124E-2,-5.4259777E-2,-1E-1,2.0485599E-2,-3.6453974E-2,6.9233395E-2,2.303093E-2,1.1254948E-2,8.462854E-2],"categories":[],"categories_nodes":[],"categories_segments":[],"categories_sizes":[],"default_left":[0,0,0,0,0,0,0,0,0,0,0,0,0,0,0,0,0,0,0,0,0,0,0,0,0,0,0,0,0,0,0,0,0,0,0,0,0,0,0,0,0,0,0,0,0,0,0,0,0,0,0,0,0,0,0,0,0],"id":2,"left_children":[1,3,5,7,9,11,13,15,17,19,21,23,-1,25,27,29,31,33,35,37,39,41,43,45,47,49,51,53,55,-1,-1,-1,-1,-1,-1,-1,-1,-1,-1,-1,-1,-1,-1,-1,-1,-1,-1,-1,-1,-1,-1,-1,-1,-1,-1,-1,-1],"loss_changes":[6.324889E5,7.9106875E3,2.8938188E4,4.5900137E3,5.150125E3,3.1693438E3,4.687533E3,4.7769434E3,1.0902944E3,1.950625E2,4.3866772E2,4.323794E2,0E0,7.4574097E2,1.2406304E3,1.8613281E0,1.7012886E3,2.0660765E2,3.699505E3,8E1,2.2695107E3,1.173096E3,6.0344257E2,4.4084824E3,8.873689E2,3.7883215E2,7.0950195E2,9.170869E2,3.2600836E2,0E0,0E0,0E0,0E0,0E0,0E0,0E0,0E0,0E0,0E0,0E0,0E0,0E0,0E0,0E0,0E0,0E0,0E0,0E0,0E0,0E0,0E0,0E0,0E0,0E0,0E0,0E0,0E0],"parents":[2147483647,0,0,1,1,2,2,3,3,4,4,5,5,6,6,7,7,8,8,9,9,10,10,11,11,13,13,14,14,15,15,16,16,17,17,18,18,19,19,20,20,21,21,22,22,23,23,24,24,25,25,26,26,27,27,28,28],"right_children":[2,4,6,8,10,12,14,16,18,20,22,24,-1,26,28,30,32,34,36,38,40,42,44,46,48,50,52,54,56,-1,-1,-1,-1,-1,-1,-1,-1,-1,-1,-1,-1,-1,-1,-1,-1,-1,-1,-1,-1,-1,-1,-1,-1,-1,-1,-1,-1],"split_conditions":[4.5749074E-1,7.9263205E-4,5.2545643E1,3.6900306E-1,4.3984452E-1,4.72225E-1,5.328623E-1,-4.7849998E-1,4.7849998E-1,4.326029E-1,-1.6094999E0,2.0879998E0,1E-1,4.72225E-1,6.5341824E-1,-1.6965E0,1.6094999E0,1.8705E0,3.6520638E1,2.801436E-1,1.4199746E1,2.811454E1,-7.395E-1,3.522408E1,1.768589E1,1.1611989E2,5.593335E-2,5.6549996E-1,1.353401E2,-1E-1,-1.0536188E-2,-1.9313483E-2,-8.251154E-2,-2.926431E-3,-5.0867427E-2,7.2351494E-4,-1E-1,-1E-1,-3.6553632E-2,1E-1,-1E-1,7.819148E-2,-1E-1,4.0717445E-2,-3.0065605E-2,7.978367E-2,-8.064217E-2,1E-1,-1.0677124E-2,-5.4259777E-2,-1E-1,2.0485599E-2,-3.6453974E-2,6.9233395E-2,2.303093E-2,1.1254948E-2,8.462854E-2],"split_indices":[11,14,1,11,11,11,11,4,3,11,4,6,0,11,11,6,4,4,1,14,1,1,4,1,1,1,14,6,1,0,0,0,0,0,0,0,0,0,0,0,0,0,0,0,0,0,0,0,0,0,0,0,0,0,0,0,0],"split_type":[0,0,0,0,0,0,0,0,0,0,0,0,0,0,0,0,0,0,0,0,0,0,0,0,0,0,0,0,0,0,0,0,0,0,0,0,0,0,0,0,0,0,0,0,0,0,0,0,0,0,0,0,0,0,0,0,0],"sum_hessian":[3.05794E5,1.7539E5,1.30404E5,5.1616E4,1.23774E5,8.4903E4,4.5501E4,3.0949E4,2.0667E4,1.1459E5,9.184E3,9.479E3,7.5424E4,1.2826E4,3.2675E4,1.3194E4,1.7755E4,1.2906E4,7.761E3,1.10874E5,3.716E3,1.032E3,8.152E3,8.488E3,9.91E2,2.389E3,1.0437E4,2.0481E4,1.2194E4,1.3191E4,3E0,1.0661E4,7.094E3,1.1936E4,9.7E2,5.268E3,2.493E3,1.10672E5,2.02E2,5.72E2,3.144E3,3.74E2,6.58E2,1.467E3,6.685E3,6.11E3,2.378E3,2.67E2,7.24E2,2.216E3,1.73E2,3.12E3,7.317E3,1.4344E4,6.137E3,1.1557E4,6.37E2],"tree_param":{"num_deleted":"0","num_feature":"15","num_nodes":"57","size_leaf_vector":"1"}},{"base_weights":[-1.16877116E-1,2.5014362E-1,-5.3129435E-1,3.9836946E-1,5.5111013E-2,-4.140031E-1,-8.368637E-1,1E0,-7.1566087E-1,3.755389E-1,-1E0,-1.5358704E-1,-6.439531E-1,-3.1589305E-1,-1E0,1E0,3.803269E-1,-3.6555353E-1,-1E0,5.652119E-1,-2.520551E-1,-8.133273E-2,-1E0,-5.00564E-2,-3.368415E-1,1.7907923E-1,-1E0,-1.7612052E-1,-9.0460443E-1,-1.5458047E-1,-1E0,1E-1,4.6810683E-2,6.331333E-2,-7.759673E-2,1.805993E-3,-1E-1,-1E-1,-2.476967E-3,-2.4502497E-2,7.859195E-2,-1.0007178E-2,-1E-1,3.1694647E-2,-1E-1,-1E-1,2.9349292E-2,3.7138205E-2,-4.646917E-2,-9.792413E-3,-6.0972262E-2,-5.1302686E-3,2.6200313E-2,-4.3679282E-2,-1E-1,9.980231E-4,-3.2483738E-2,-5.1758178E-2,-1E-1,8.864935E-3,-1E-1,-1E-1,-3.1888913E-2],"categories":[],"categories_nodes":[],"categories_segments":[],"categories_sizes":[],"default_left":[0,0,0,0,0,0,0,0,0,0,0,0,0,0,0,0,0,0,0,0,0,0,0,0,0,0,0,0,0,0,0,0,0,0,0,0,0,0,0,0,0,0,0,0,0,0,0,0,0,0,0,0,0,0,0,0,0,0,0,0,0,0,0],"id":3,"left_children":[1,3,5,7,9,11,13,15,17,19,21,23,25,27,29,31,33,35,37,39,41,43,45,47,49,51,53,55,57,59,61,-1,-1,-1,-1,-1,-1,-1,-1,-1,-1,-1,-1,-1,-1,-1,-1,-1,-1,-1,-1,-1,-1,-1,-1,-1,-1,-1,-1,-1,-1,-1,-1],"loss_changes":[4.6511824E4,4.6881797E3,5.1468945E3,8.728523E4,3.5428246E4,6.2150645E3,7.9640957E3,2.4980781E3,9.12309E3,7.134253E3,1.7819668E3,9.2342773E2,3.839053E4,1.5867318E3,2.832504E3,7.798594E2,1.9043452E3,9.761112E3,1.25296875E2,8.230333E3,1.8935645E3,8.971465E2,7.0021484E1,5.4358154E3,1.1454248E3,6.236399E2,2.5672656E2,4.3147543E2,3.4940845E2,1.0010896E3,7.767578E1,0E0,0E0,0E0,0E0,0E0,0E0,0E0,0E0,0E0,0E0,0E0,0E0,0E0,0E0,0E0,0E0,0E0,0E0,0E0,0E0,0E0,0E0,0E0,0E0,0E0,0E0,0E0,0E0,0E0,0E0,0E0,0E0],"parents":[2147483647,0,0,1,1,2,2,3,3,4,4,5,5,6,6,7,7,8,8,9,9,10,10,11,11,12,12,13,13,14,14,15,15,16,16,17,17,18,18,19,19,20,20,21,21,22,22,23,23,24,24,25,25,26,26,27,27,28,28,29,29,30,30],"right_children":[2,4,6,8,10,12,14,16,18,20,22,24,26,28,30,32,34,36,38,40,42,44,46,48,50,52,54,56,58,60,62,-1,-1,-1,-1,-1,-1,-1,-1,-1,-1,-1,-1,-1,-1,-1,-1,-1,-1,-1,-1,-1,-1,-1,-1,-1,-1,-1,-1,-1,-1,-1,-1],"split_conditions":[7.34229E-2,4E0,1.4706877E-1,4.5568296E-1,5.09927E-1,3.55111E1,4.9470133E-1,4.2886078E-1,5.764502E-1,3.1260112E-1,3.1584877E-1,1.11981064E-1,3.1260112E-1,3.9310792E-1,3.14304E-1,3.6968768E-1,4.1574833E-1,4.4139856E-1,2.3925E0,1.9876769E-1,4.401992E-1,6.313375E-1,4.437E0,3.3649895E-1,4.4531137E-1,-1.0875E0,-3.741E0,2.8670982E-1,-1.3049999E-1,7.326921E-1,7.921357E-1,1E-1,4.6810683E-2,6.331333E-2,-7.759673E-2,1.805993E-3,-1E-1,-1E-1,-2.476967E-3,-2.4502497E-2,7.859195E-2,-1.0007178E-2,-1E-1,3.1694647E-2,-1E-1,-1E-1,2.9349292E-2,3.7138205E-2,-4.646917E-2,-9.792413E-3,-6.0972262E-2,-5.1302686E-3,2.6200313E-2,-4.3679282E-2,-1E-1,9.980231E-4,-3.2483738E-2,-5.1758178E-2,-1E-1,8.864935E-3,-1E-1,-1E-1,-3.1888913E-2],"split_indices":[14,0,14,11,11,1,11,11,11,12,12,14,12,12,12,12,12,12,3,11,12,11,6,12,11,4,5,12,4,11,11,0,0,0,0,0,0,0,0,0,0,0,0,0,0,0,0,0,0,0,0,0,0,0,0,0,0,0,0,0,0,0,0],"split_type":[0,0,0,0,0,0,0,0,0,0,0,0,0,0,0,0,0,0,0,0,0,0,0,0,0,0,0,0,0,0,0,0,0,0,0,0,0,0,0,0,0,0,0,0,0,0,0,0,0,0,0,0,0,0,0,0,0,0,0,0,0,0,0],"sum_hessian":[3.05794E5,1.62171E5,1.43623E5,9.2141E4,7.003E4,1.03789E5,3.9834E4,5.1158E4,4.0983E4,5.9928E4,1.0102E4,4.8672E4,5.5117E4,1.9285E4,2.0549E4,4.4649E4,6.509E3,3.09E4,1.0083E4,4.602E4,1.3908E4,2.112E3,7.99E3,3.1103E4,1.7569E4,3.264E4,2.2477E4,1.5587E4,3.698E3,3.964E3,1.6585E4,4.1887E4,2.762E3,5.342E3,1.167E3,2.1419E4,9.481E3,9.951E3,1.32E2,9.852E3,3.6168E4,1.1947E4,1.961E3,1.545E3,5.67E2,7.949E3,4.1E1,1.5425E4,1.5678E4,9.369E3,8.2E3,8.639E3,2.4001E4,8.14E2,2.1663E4,6.924E3,8.663E3,1.653E3,2.045E3,3.236E3,7.28E2,1.6415E4,1.7E2],"tree_param":{"num_deleted":"0","num_feature":"15","num_nodes":"63","size_leaf_vector":"1"}},{"base_weights":[-1.1483062E-1,9.857625E-2,-2.0686577E-1,-3.1796658E-1,1E0,-1.1220688E-1,-4.1228953E-1,3.629105E-1,-4.524486E-1,6.911667E-2,1E0,-6.8665725E-1,5.4068774E-1,-6.195259E-1,-7.707992E-2,7.2856534E-1,-7.543865E-2,-5.364101E-1,5.5499353E-2,8.5245594E-2,-9.210973E-1,7.6057094E-1,1E0,-3.1594494E-1,-9.629382E-1,1.68814E-1,1E0,-1.6507587E-1,-8.8758403E-1,-1.0653204E-1,8.573245E-1,1E-1,2.2442743E-2,-9.2308596E-2,2.8219896E-3,-2.3589185E-2,-5.8133494E-2,-4.454908E-2,1E-1,-5.7769682E-2,2.3757618E-2,-1E-1,3.796531E-2,3.3422464E-3,1E-1,1E-1,-3.253139E-2,-3.2525703E-3,-6.904828E-2,-1E-1,-1.8489527E-2,6.3459496E-3,3.685364E-2,1.4311264E-2,1E-1,6.7248554E-3,-6.49996E-2,-9.5003E-2,-9.168502E-3,-1.25949625E-2,1E-1,1E-1,-1E-1],"categories":[],"categories_nodes":[],"categories_segments":[],"categories_sizes":[],"default_left":[0,0,0,0,0,0,0,0,0,0,0,0,0,0,0,0,0,0,0,0,0,0,0,0,0,0,0,0,0,0,0,0,0,0,0,0,0,0,0,0,0,0,0,0,0,0,0,0,0,0,0,0,0,0,0,0,0,0,0,0,0,0,0],"id":4,"left_children":[1,3,5,7,9,11,13,15,17,19,21,23,25,27,29,31,33,35,37,39,41,43,45,47,49,51,53,55,57,59,61,-1,-1,-1,-1,-1,-1,-1,-1,-1,-1,-1,-1,-1,-1,-1,-1,-1,-1,-1,-1,-1,-1,-1,-1,-1,-1,-1,-1,-1,-1,-1,-1],"loss_changes":[6.006178E3,5.2136387E4,4.154463E3,6.6955625E3,2.8028555E3,5.4857227E4,4.6816475E3,1.9333599E3,2.604166E3,5.190393E1,1.0420703E2,7.9683047E3,1.5727186E4,5.0730635E3,7.088747E2,1.2698328E3,4.8230072E2,7.071133E2,4.470396E3,3.2216986E2,5.6782787E1,7.632821E2,1.5441016E2,3.527137E3,3.61075E3,9.188805E2,2.1866836E3,1.7411924E3,1.3016543E3,6.8213654E2,3.9054565E2,0E0,0E0,0E0,0E0,0E0,0E0,0E0,0E0,0E0,0E0,0E0,0E0,0E0,0E0,0E0,0E0,0E0,0E0,0E0,0E0,0E0,0E0,0E0,0E0,0E0,0E0,0E0,0E0,0E0,0E0,0E0,0E0],"parents":[2147483647,0,0,1,1,2,2,3,3,4,4,5,5,6,6,7,7,8,8,9,9,10,10,11,11,12,12,13,13,14,14,15,15,16,16,17,17,18,18,19,19,20,20,21,21,22,22,23,23,24,24,25,25,26,26,27,27,28,28,29,29,30,30],"right_children":[2,4,6,8,10,12,14,16,18,20,22,24,26,28,30,32,34,36,38,40,42,44,46,48,50,52,54,56,58,60,62,-1,-1,-1,-1,-1,-1,-1,-1,-1,-1,-1,-1,-1,-1,-1,-1,-1,-1,-1,-1,-1,-1,-1,-1,-1,-1,-1,-1,-1,-1,-1,-1],"split_conditions":[-5.046E0,4.0955064E-1,5.2545643E1,2.6296887E-1,4.72225E-1,3.3204597E-1,3.0465445E-1,1.7094344E-1,3.8184008E-1,3.0015E0,4.182896E-1,7.183966E-2,4.220399E-1,7.2876E-2,4.9809688E-1,3.915E-1,-2.4116855E0,3.0703828E-1,5.499797E-1,4.1574833E-1,3.0885E0,5.4654413E-1,6.209028E-1,2.264454E-1,3.14304E-1,5.1478344E-1,4.690789E-1,3.7277684E-1,7.004711E-1,7.921357E-1,2.4794998E0,1E-1,2.2442743E-2,-9.2308596E-2,2.8219896E-3,-2.3589185E-2,-5.8133494E-2,-4.454908E-2,1E-1,-5.7769682E-2,2.3757618E-2,-1E-1,3.796531E-2,3.3422464E-3,1E-1,1E-1,-3.253139E-2,-3.2525703E-3,-6.904828E-2,-1E-1,-1.8489527E-2,6.3459496E-3,3.685364E-2,1.4311264E-2,1E-1,6.7248554E-3,-6.49996E-2,-9.5003E-2,-9.168502E-3,-1.25949625E-2,1E-1,1E-1,-1E-1],"split_indices":[6,12,1,11,11,12,12,12,12,9,12,14,12,14,12,7,7,11,11,12,9,11,11,12,12,11,11,11,11,11,7,0,0,0,0,0,0,0,0,0,0,0,0,0,0,0,0,0,0,0,0,0,0,0,0,0,0,0,0,0,0,0,0],"split_type":[0,0,0,0,0,0,0,0,0,0,0,0,0,0,0,0,0,0,0,0,0,0,0,0,0,0,0,0,0,0,0,0,0,0,0,0,0,0,0,0,0,0,0,0,0,0,0,0,0,0,0,0,0,0,0,0,0,0,0,0,0,0,0],"sum_hessian":[3.05794E5,9.2141E4,2.13653E5,7.3117E4,1.9024E4,1.4626E5,6.7393E4,1.2059E4,6.1058E4,3.235E3,1.5789E4,7.7804E4,6.8456E4,4.1645E4,2.5748E4,6.574E3,5.485E3,5.2397E4,8.661E3,3.185E3,5E1,1.852E3,1.3937E4,3.3226E4,4.4578E4,4.367E4,2.4786E4,1.5452E4,2.6193E4,2.4963E4,7.85E2,3.656E3,2.918E3,5.96E2,4.889E3,6.816E3,4.5581E4,5.837E3,2.824E3,5.94E2,2.591E3,2.1E1,2.9E1,9.31E2,9.21E2,1.385E4,8.7E1,1.8915E4,1.4311E4,3.905E4,5.528E3,2.8591E4,1.5079E4,2.979E3,2.1807E4,1.0448E4,5.004E3,2.4287E4,1.906E3,2.4649E4,3.14E2,6.87E2,9.8E1],"tree_param":{"num_deleted":"0","num_feature":"15","num_nodes":"63","size_leaf_vector":"1"}},{"base_weights":[-1.1112256E-1,1.8921319E-1,-2.4084081E-1,-9.9190557E-1,1.9809845E-1,2.880429E-1,-1E0,-1E0,1E0,-1.9416724E-1,2.7111936E-1,8.2445127E-1,-7.443426E-2,-2.9477945E-1,-1E0,-2.265817E-1,-1E0,1E0,-6.4392185E-1,8.006027E-1,-1E0,2.1283986E-1,5.811218E-1,8.869497E-1,4.6419688E-2,8.401762E-2,-2.6851055E-1,-8.3334886E-2,-1E0,-1E0,-8.740586E-1,-1E-1,1E-1,-1E-1,-6.872128E-2,-2.8474063E-2,1E-1,-7.238894E-2,2.8689235E-2,1E-1,4.72051E-2,-1E-1,3.7143856E-2,3.884618E-2,-1.6491605E-3,9.5033705E-2,-4.9877208E-2,5.1101636E-2,1E-1,1.9281391E-2,-2.5305659E-2,1.7303905E-2,2.6404655E-3,-3.0960346E-2,2.8970847E-2,-1.8135821E-2,4.0475648E-2,1.9707432E-2,-1E-1,-7.1081385E-2,-1E-1,-5.5923354E-2,-1E-1],"categories":[],"categories_nodes":[],"categories_segments":[],"categories_sizes":[],"default_left":[0,0,0,0,0,0,0,0,0,0,0,0,0,0,0,0,0,0,0,0,0,0,0,0,0,0,0,0,0,0,0,0,0,0,0,0,0,0,0,0,0,0,0,0,0,0,0,0,0,0,0,0,0,0,0,0,0,0,0,0,0,0,0],"id":5,"left_children":[1,3,5,7,9,11,13,15,17,19,21,23,25,27,29,31,33,35,37,39,41,43,45,47,49,51,53,55,57,59,61,-1,-1,-1,-1,-1,-1,-1,-1,-1,-1,-1,-1,-1,-1,-1,-1,-1,-1,-1,-1,-1,-1,-1,-1,-1,-1,-1,-1,-1,-1,-1,-1],"loss_changes":[1.1913635E4,9.6844946E2,9.170381E4,6.071862E2,2.6225054E3,2.5172246E4,1.3486406E3,2.5986816E1,1.899904E2,2.0618672E4,1.3942368E3,2.5383945E3,2.3758975E3,5.4369995E2,1.04953125E2,2.1441537E2,7.4088135E0,5.419745E1,5.726574E0,6.374043E2,7.491211E0,2.6169094E3,4.8705137E3,3.167746E3,1.7041293E2,2.1813608E2,7.967742E2,1.0816642E2,6.255414E1,7.925547E2,5.652378E2,0E0,0E0,0E0,0E0,0E0,0E0,0E0,0E0,0E0,0E0,0E0,0E0,0E0,0E0,0E0,0E0,0E0,0E0,0E0,0E0,0E0,0E0,0E0,0E0,0E0,0E0,0E0,0E0,0E0,0E0,0E0,0E0],"parents":[2147483647,0,0,1,1,2,2,3,3,4,4,5,5,6,6,7,7,8,8,9,9,10,10,11,11,12,12,13,13,14,14,15,15,16,16,17,17,18,18,19,19,20,20,21,21,22,22,23,23,24,24,25,25,26,26,27,27,28,28,29,29,30,30],"right_children":[2,4,6,8,10,12,14,16,18,20,22,24,26,28,30,32,34,36,38,40,42,44,46,48,50,52,54,56,58,60,62,-1,-1,-1,-1,-1,-1,-1,-1,-1,-1,-1,-1,-1,-1,-1,-1,-1,-1,-1,-1,-1,-1,-1,-1,-1,-1,-1,-1,-1,-1,-1,-1],"split_conditions":[-4.785E0,9.57E-1,3.3803082E-1,1.1611989E2,1.3741735E1,7.34229E-2,2.0880005E0,-2.2619998E0,3.0449998E-1,4.1208708E-1,1.6094999E0,3.14304E-1,1.1602406E-1,4.8459074E-1,2.6534998E0,1.9534346E-1,1.0340491E2,-1.2615E0,2.3925E0,3.3204597E-1,7.9263205E-4,3.8124153E1,3.5561693E-1,1.6241953E-1,4.5566227E1,3.55111E1,1.0894338E2,1.4839113E2,-2.4986854E0,1.2090711E1,4.0326512E-1,-1E-1,1E-1,-1E-1,-6.872128E-2,-2.8474063E-2,1E-1,-7.238894E-2,2.8689235E-2,1E-1,4.72051E-2,-1E-1,3.7143856E-2,3.884618E-2,-1.6491605E-3,9.5033705E-2,-4.9877208E-2,5.1101636E-2,1E-1,1.9281391E-2,-2.5305659E-2,1.7303905E-2,2.6404655E-3,-3.0960346E-2,2.8970847E-2,-1.8135821E-2,4.0475648E-2,1.9707432E-2,-1E-1,-7.1081385E-2,-1E-1,-5.5923354E-2,-1E-1],"split_indices":[6,2,12,1,1,14,2,4,3,12,3,12,14,12,9,12,1,3,3,12,14,1,12,12,1,1,1,1,8,1,12,0,0,0,0,0,0,0,0,0,0,0,0,0,0,0,0,0,0,0,0,0,0,0,0,0,0,0,0,0,0,0,0],"split_type":[0,0,0,0,0,0,0,0,0,0,0,0,0,0,0,0,0,0,0,0,0,0,0,0,0,0,0,0,0,0,0,0,0,0,0,0,0,0,0,0,0,0,0,0,0,0,0,0,0,0,0,0,0,0,0,0,0,0,0,0,0,0,0],"sum_hessian":[3.05794E5,9.2237E4,2.13557E5,6.87E2,9.155E4,1.2946E5,8.4097E4,5.55E2,1.32E2,1.4367E4,7.7183E4,5.2204E4,7.7256E4,2.714E3,8.1383E4,4.5E1,5.1E2,6.3E1,6.9E1,9.236E3,5.131E3,6.4972E4,1.2211E4,4.8322E4,3.882E3,4.2532E4,3.4724E4,2.255E3,4.59E2,7.4638E4,6.745E3,3.4E1,1.1E1,4.15E2,9.5E1,3.2E1,3.1E1,6.4E1,5E0,5.626E3,3.61E3,5.128E3,3E0,3.6794E4,2.8178E4,9.1E3,3.111E3,1.5838E4,3.2484E4,2.608E3,1.274E3,1.6709E4,2.5823E4,3.2344E4,2.38E3,1.879E3,3.76E2,4.3E1,4.16E2,9.5E3,6.5138E4,3.469E3,3.276E3],"tree_param":{"num_deleted":"0","num_feature":"15","num_nodes":"63","size_leaf_vector":"1"}},{"base_weights":[-1.0840446E-1,-3.736851E-1,5.5139437E-2,-8.4598947E-1,6.355878E-3,-1.6910738E-1,1E0,-1E0,-7.10103E-1,-1.9059238E-1,1.8199731E-1,-2.9167604E-1,9.596617E-3,-1.4070077E-1,1E0,-7.854144E-1,-1E0,-1E0,-4.044502E-1,-5.012666E-1,-1.0143331E-1,1.4411028E-1,1E0,-5.949337E-1,1.50412E-1,-5.14025E-1,1.217344E-1,1.759909E-1,-1E0,8.6360854E-1,1E0,6.2091886E-3,-8.683605E-2,-7.233025E-2,-1E-1,-1E-1,-1.0191089E-2,-3.4982733E-2,-6.0183115E-2,-5.518197E-2,-1.9402033E-2,-6.491744E-4,-1.3818909E-2,4.231814E-2,6.111381E-3,1E-1,1.896306E-2,-2.239508E-2,-6.704851E-2,1.7859528E-3,4.461117E-2,-3.4644086E-2,-8.426204E-2,3.7796173E-2,-1.1604204E-2,7.896437E-3,1E-1,1E-1,-1E-1,-7.896516E-3,1E-1,1E-1,1.8553583E-2],"categories":[],"categories_nodes":[],"categories_segments":[],"categories_sizes":[],"default_left":[0,0,0,0,0,0,0,0,0,0,0,0,0,0,0,0,0,0,0,0,0,0,0,0,0,0,0,0,0,0,0,0,0,0,0,0,0,0,0,0,0,0,0,0,0,0,0,0,0,0,0,0,0,0,0,0,0,0,0,0,0,0,0],"id":6,"left_children":[1,3,5,7,9,11,13,15,17,19,21,23,25,27,29,31,33,35,37,39,41,43,45,47,49,51,53,55,57,59,61,-1,-1,-1,-1,-1,-1,-1,-1,-1,-1,-1,-1,-1,-1,-1,-1,-1,-1,-1,-1,-1,-1,-1,-1,-1,-1,-1,-1,-1,-1,-1,-1],"loss_changes":[1.3267051E4,2.0933514E4,4.604625E4,1.4523242E3,2.2356658E3,3.444416E3,1.6429598E4,9.513281E1,4.3675713E3,8.437904E2,1.5015463E3,1.2505559E4,3.7568132E3,4.0081907E3,4.248828E1,1.4852112E2,4.5085938E1,5.028711E1,2.1409668E2,1.05258545E2,8.260771E1,7.702467E2,2.638319E2,1.5503477E3,1.48758E3,6.2083374E2,3.2105652E3,8.246315E2,1.0354658E3,3.493412E2,1.6721719E3,0E0,0E0,0E0,0E0,0E0,0E0,0E0,0E0,0E0,0E0,0E0,0E0,0E0,0E0,0E0,0E0,0E0,0E0,0E0,0E0,0E0,0E0,0E0,0E0,0E0,0E0,0E0,0E0,0E0,0E0,0E0,0E0],"parents":[2147483647,0,0,1,1,2,2,3,3,4,4,5,5,6,6,7,7,8,8,9,9,10,10,11,11,12,12,13,13,14,14,15,15,16,16,17,17,18,18,19,19,20,20,21,21,22,22,23,23,24,24,25,25,26,26,27,27,28,28,29,29,30,30],"right_children":[2,4,6,8,10,12,14,16,18,20,22,24,26,28,30,32,34,36,38,40,42,44,46,48,50,52,54,56,58,60,62,-1,-1,-1,-1,-1,-1,-1,-1,-1,-1,-1,-1,-1,-1,-1,-1,-1,-1,-1,-1,-1,-1,-1,-1,-1,-1,-1,-1,-1,-1,-1,-1],"split_conditions":[2.8709998E0,2.5491118E-1,4.220399E-1,4.7972996E1,5.0847225E1,7.34229E-2,5.8751605E-3,-2.0879998E0,2.0879998E0,2.9961756E-1,4.9809688E-1,3.1260112E-1,2.3078077E-1,4.684022E-1,4.2854026E-1,-2.4986854E0,-2.9336853E0,2.1021721E-1,1.6094999E0,1.7835E0,-3.1076853E0,-2.7596853E0,4.7849998E-1,-3.1076853E0,-2.8466854E0,1.1121676E-1,1.13485254E-1,1.6965E0,-2.0879998E0,-2.1506855E0,1.6541676E-1,6.2091886E-3,-8.683605E-2,-7.233025E-2,-1E-1,-1E-1,-1.0191089E-2,-3.4982733E-2,-6.0183115E-2,-5.518197E-2,-1.9402033E-2,-6.491744E-4,-1.3818909E-2,4.231814E-2,6.111381E-3,1E-1,1.896306E-2,-2.239508E-2,-6.704851E-2,1.7859528E-3,4.461117E-2,-3.4644086E-2,-8.426204E-2,3.7796173E-2,-1.1604204E-2,7.896437E-3,1E-1,1E-1,-1E-1,-7.896516E-3,1E-1,1E-1,1.8553583E-2],"split_indices":[2,12,12,1,1,14,14,4,2,12,12,12,12,12,12,7,8,14,4,3,10,10,8,9,10,14,14,3,4,8,14,0,0,0,0,0,0,0,0,0,0,0,0,0,0,0,0,0,0,0,0,0,0,0,0,0,0,0,0,0,0,0,0],"split_type":[0,0,0,0,0,0,0,0,0,0,0,0,0,0,0,0,0,0,0,0,0,0,0,0,0,0,0,0,0,0,0,0,0,0,0,0,0,0,0,0,0,0,0,0,0,0,0,0,0,0,0,0,0,0,0,0,0,0,0,0,0,0,0],"sum_hessian":[3.05794E5,1.16622E5,1.89172E5,5.1998E4,6.4624E4,1.57251E5,3.1921E4,2.0018E4,3.198E4,3.0464E4,3.416E4,9.3275E4,6.3976E4,1.2626E4,1.9295E4,2.109E3,1.7909E4,1.2084E4,1.9896E4,6.791E3,2.3673E4,3.3255E4,9.05E2,5.5324E4,3.7951E4,1.1283E4,5.2693E4,9.64E3,2.986E3,2.393E3,1.6902E4,1.88E2,1.921E3,6.14E2,1.7295E4,1.2021E4,6.3E1,1.5588E4,4.308E3,5.83E3,9.61E2,6.608E3,1.7065E4,7.621E3,2.5634E4,5.02E2,4.03E2,9.362E3,4.5962E4,2.6206E4,1.1745E4,7.475E3,3.808E3,2.5362E4,2.7331E4,8.69E3,9.5E2,8.9E1,2.897E3,3.38E2,2.055E3,1.438E4,2.522E3],"tree_param":{"num_deleted":"0","num_feature":"15","num_nodes":"63","size_leaf_vector":"1"}},{"base_weights":[-1.0392581E-1,1.7394933E-1,-3.806682E-1,4.8416662E-1,-8.937237E-1,-8.1792064E-2,-9.011253E-1,5.591898E-1,-4.1451618E-1,-6.500553E-2,-1E0,6.870638E-3,-6.274866E-1,-2.3176526E-1,-1E0,6.535422E-1,1.463683E-1,-4.8058367E-1,-1.7130913E-2,5.8428887E-2,-3.01852E-1,-1E0,2.1569051E-1,3.6855975E-1,-1.3651466E-1,-1E0,-5.482888E-1,-4.1778597E-1,-1.0209281E-1,-6.6526926E-1,-1E-1,7.2541535E-2,3.3416737E-2,6.6808617E-4,2.4559505E-2,-2.399752E-3,-7.018297E-2,1.3662675E-2,-8.753025E-2,1E-1,3.549544E-3,4.9762665E-3,-6.0653962E-2,-7.433015E-2,-1E-1,-1E-1,4.7810163E-2,2.4206772E-2,6.3140266E-2,-2.9445363E-3,-2.2935335E-2,-3.3051692E-2,-1E-1,1.2332789E-2,-6.627203E-2,-3.0438146E-2,-7.1787015E-2,5.440935E-3,-2.4321087E-2,-3.419301E-2,-1E-1],"categories":[],"categories_nodes":[],"categories_segments":[],"categories_sizes":[],"default_left":[0,0,0,0,0,0,0,0,0,0,0,0,0,0,0,0,0,0,0,0,0,0,0,0,0,0,0,0,0,0,0,0,0,0,0,0,0,0,0,0,0,0,0,0,0,0,0,0,0,0,0,0,0,0,0,0,0,0,0,0,0],"id":7,"left_children":[1,3,5,7,9,11,13,15,17,19,21,23,25,27,29,31,33,35,37,39,41,43,45,47,49,51,53,55,57,59,-1,-1,-1,-1,-1,-1,-1,-1,-1,-1,-1,-1,-1,-1,-1,-1,-1,-1,-1,-1,-1,-1,-1,-1,-1,-1,-1,-1,-1,-1,-1],"loss_changes":[2.3515842E4,5.05394E4,2.3832152E4,7.9721426E3,8.585416E3,4.7089424E3,8.089461E3,4.250301E3,2.3914856E2,3.0022946E2,7.048828E1,4.342164E3,4.7395703E2,3.5295197E2,6.6010156E2,2.0383828E3,2.8141565E2,7.8908215E2,1.7204227E2,1.5076936E2,3.7700122E2,4.5239453E2,1.9543917E1,7.899426E2,5.959619E2,1.10831055E2,8.904641E2,2.0411108E2,1.9058005E2,8.5620996E2,0E0,0E0,0E0,0E0,0E0,0E0,0E0,0E0,0E0,0E0,0E0,0E0,0E0,0E0,0E0,0E0,0E0,0E0,0E0,0E0,0E0,0E0,0E0,0E0,0E0,0E0,0E0,0E0,0E0,0E0,0E0],"parents":[2147483647,0,0,1,1,2,2,3,3,4,4,5,5,6,6,7,7,8,8,9,9,10,10,11,11,12,12,13,13,14,14,15,15,16,16,17,17,18,18,19,19,20,20,21,21,22,22,23,23,24,24,25,25,26,26,27,27,28,28,29,29],"right_children":[2,4,6,8,10,12,14,16,18,20,22,24,26,28,30,32,34,36,38,40,42,44,46,48,50,52,54,56,58,60,-1,-1,-1,-1,-1,-1,-1,-1,-1,-1,-1,-1,-1,-1,-1,-1,-1,-1,-1,-1,-1,-1,-1,-1,-1,-1,-1,-1,-1,-1,-1],"split_conditions":[1.2228138E-1,3.7921664E-1,3.6968768E-1,5.3711367E-1,4.7809055E-1,5.9595484E-1,4.7955385E-1,7.34229E-2,8.7871765E1,4.5906463E-1,4.437E0,7.739175E-2,5.6581486E1,1.655033E1,4.9835357E-1,3.14304E-1,2.0528777E-1,3.14304E-1,3.1901476E-1,-2.2619998E0,4.244037E-1,4.1086015E-1,1.6810379E1,5.342139E1,1.2219498E-1,3.220007E-1,2.4745119E-1,1.4271244E-1,1.13485254E-1,4.4971192E-1,-1E-1,7.2541535E-2,3.3416737E-2,6.6808617E-4,2.4559505E-2,-2.399752E-3,-7.018297E-2,1.3662675E-2,-8.753025E-2,1E-1,3.549544E-3,4.9762665E-3,-6.0653962E-2,-7.433015E-2,-1E-1,-1E-1,4.7810163E-2,2.4206772E-2,6.3140266E-2,-2.9445363E-3,-2.2935335E-2,-3.3051692E-2,-1E-1,1.2332789E-2,-6.627203E-2,-3.0438146E-2,-7.1787015E-2,5.440935E-3,-2.4321087E-2,-3.419301E-2,-1E-1],"split_indices":[13,12,12,11,11,11,11,14,1,11,6,14,1,1,11,12,12,12,12,3,12,12,1,1,14,12,12,14,14,12,0,0,0,0,0,0,0,0,0,0,0,0,0,0,0,0,0,0,0,0,0,0,0,0,0,0,0,0,0,0,0],"split_type":[0,0,0,0,0,0,0,0,0,0,0,0,0,0,0,0,0,0,0,0,0,0,0,0,0,0,0,0,0,0,0,0,0,0,0,0,0,0,0,0,0,0,0,0,0,0,0,0,0,0,0,0,0,0,0,0,0,0,0,0,0],"sum_hessian":[3.05794E5,1.52585E5,1.53209E5,1.18233E5,3.4352E4,9.7323E4,5.5886E4,1.09124E5,9.109E3,1.0265E4,2.4087E4,8.3722E4,1.3601E4,1.4634E4,4.1252E4,8.8822E4,2.0302E4,7.81E3,1.299E3,6.749E3,3.516E3,2.404E4,4.7E1,2.3767E4,5.9955E4,2.019E3,1.1582E4,6.009E3,8.625E3,5.908E3,3.5344E4,7.2503E4,1.6319E4,8.433E3,1.1869E4,2.55E3,5.26E3,1.103E3,1.96E2,1.53E2,6.596E3,1.633E3,1.883E3,6.895E3,1.7145E4,6E0,4.1E1,1.6048E4,7.719E3,2.7845E4,3.211E4,2.5E2,1.769E3,1.686E3,9.896E3,4.364E3,1.645E3,4.09E3,4.535E3,3.509E3,2.399E3],"tree_param":{"num_deleted":"0","num_feature":"15","num_nodes":"61","size_leaf_vector":"1"}},{"base_weights":[-1.0126484E-1,-7.2101706E-1,1E0,-9.8747635E-1,-2.1301605E-1,3.6217165E-1,1E0,-1E0,-6.16723E-1,-5.4912066E-1,8.775766E-2,3.3344116E-2,8.184109E-1,1E0,6.745912E-1,-1E0,1.0300985E-1,-1E0,-5.6464666E-1,-7.698666E-1,-2.6944822E-1,-4.3805563E-1,5.2056104E-1,-6.4502984E-1,5.2230254E-2,2.285196E-2,1E0,2.856902E-1,1E-1,-9.012797E-2,8.077197E-1,-1E-1,-9.367834E-2,1.2285486E-3,3.158861E-2,-1E-1,-2.456213E-2,-7.603899E-2,-5.3448927E-2,-4.954938E-2,-9.212502E-2,-5.4470655E-2,-1.8169342E-2,-4.881691E-2,-3.4206282E-2,4.4000857E-2,6.64059E-2,-9.452819E-2,-3.5680544E-2,-1.8999873E-3,2.1978289E-2,4.3699075E-2,-8.089016E-3,1E-1,8.061724E-2,1.859807E-2,6.1933096E-2,-1.8875856E-2,3.064935E-2,3.174736E-2,1E-1],"categories":[],"categories_nodes":[],"categories_segments":[],"categories_sizes":[],"default_left":[0,0,0,0,0,0,0,0,0,0,0,0,0,0,0,0,0,0,0,0,0,0,0,0,0,0,0,0,0,0,0,0,0,0,0,0,0,0,0,0,0,0,0,0,0,0,0,0,0,0,0,0,0,0,0,0,0,0,0,0,0],"id":8,"left_children":[1,3,5,7,9,11,13,15,17,19,21,23,25,27,29,31,33,35,37,39,41,43,45,47,49,51,53,55,-1,57,59,-1,-1,-1,-1,-1,-1,-1,-1,-1,-1,-1,-1,-1,-1,-1,-1,-1,-1,-1,-1,-1,-1,-1,-1,-1,-1,-1,-1,-1,-1],"loss_changes":[2.3737736E5,2.779686E4,1.4415766E4,3.4167812E3,7.1429697E3,5.3167856E3,8.907969E2,5.9717188E3,4.8490234E2,2.0596416E3,8.48677E3,2.6400128E2,3.0574639E3,3.4838281E3,8.585979E2,1.28125E0,9.482033E1,1.95E1,1.21473145E2,7.735967E2,3.5543567E2,8.0636475E1,2.3583447E2,4.7583115E1,2.392316E2,1.598327E2,2.6880273E2,2.2704822E2,0E0,4.9122826E1,8.653086E2,0E0,0E0,0E0,0E0,0E0,0E0,0E0,0E0,0E0,0E0,0E0,0E0,0E0,0E0,0E0,0E0,0E0,0E0,0E0,0E0,0E0,0E0,0E0,0E0,0E0,0E0,0E0,0E0,0E0,0E0],"parents":[2147483647,0,0,1,1,2,2,3,3,4,4,5,5,6,6,7,7,8,8,9,9,10,10,11,11,12,12,13,13,14,14,15,15,16,16,17,17,18,18,19,19,20,20,21,21,22,22,23,23,24,24,25,25,26,26,27,27,29,29,30,30],"right_children":[2,4,6,8,10,12,14,16,18,20,22,24,26,28,30,32,34,36,38,40,42,44,46,48,50,52,54,56,-1,58,60,-1,-1,-1,-1,-1,-1,-1,-1,-1,-1,-1,-1,-1,-1,-1,-1,-1,-1,-1,-1,-1,-1,-1,-1,-1,-1,-1,-1,-1,-1],"split_conditions":[3.6320302E-1,2.8828946E-1,3.994538E-1,1.13485254E-1,3.575415E1,3.9242165E1,1.6744518E-1,5.448297E-1,1.6529999E0,3.981083E-1,5.135463E-1,2.6970007E0,5.159561E-1,4.5749074E-1,4.7064978E-1,1E1,1.2615E0,3.0885E0,-1.7835E0,-3.1076853E0,3.1901476E-1,5.6549996E-1,9.1349995E-1,3.7921664E-1,3.8922805E-1,-3.1076853E0,-2.4986854E0,4.298959E-1,1E-1,4.401992E-1,4.298959E-1,-1E-1,-9.367834E-2,1.2285486E-3,3.158861E-2,-1E-1,-2.456213E-2,-7.603899E-2,-5.3448927E-2,-4.954938E-2,-9.212502E-2,-5.4470655E-2,-1.8169342E-2,-4.881691E-2,-3.4206282E-2,4.4000857E-2,6.64059E-2,-9.452819E-2,-3.5680544E-2,-1.8999873E-3,2.1978289E-2,4.3699075E-2,-8.089016E-3,1E-1,8.061724E-2,1.859807E-2,6.1933096E-2,-1.8875856E-2,3.064935E-2,3.174736E-2,1E-1],"split_indices":[12,12,12,14,1,1,14,11,2,11,11,2,11,11,11,0,8,10,3,10,12,3,7,12,12,10,10,12,0,12,12,0,0,0,0,0,0,0,0,0,0,0,0,0,0,0,0,0,0,0,0,0,0,0,0,0,0,0,0,0,0],"split_type":[0,0,0,0,0,0,0,0,0,0,0,0,0,0,0,0,0,0,0,0,0,0,0,0,0,0,0,0,0,0,0,0,0,0,0,0,0,0,0,0,0,0,0,0,0,0,0,0,0,0,0,0,0,0,0,0,0,0,0,0,0],"sum_hessian":[3.05794E5,2.05354E5,1.0044E5,1.34699E5,7.0655E4,3.5438E4,6.5002E4,1.11284E5,2.3415E4,3.3367E4,3.7288E4,2.0596E4,1.4842E4,5.6572E4,8.43E3,1.06376E5,4.908E3,2.698E3,2.0717E4,1.8646E4,1.4721E4,1.6835E4,2.0453E4,5.56E2,2.004E4,3.715E3,1.1127E4,6.83E3,4.9742E4,1.25E3,7.18E3,1.05544E5,8.32E2,3.443E3,1.465E3,2.662E3,3.6E1,2.759E3,1.7958E4,6.633E3,1.2013E4,3.556E3,1.1165E4,1.1055E4,5.78E3,1.3105E4,7.348E3,2.7E2,2.86E2,1.4063E4,5.977E3,7.43E2,2.972E3,3.919E3,7.208E3,5.261E3,1.569E3,1.002E3,2.48E2,2.43E3,4.75E3],"tree_param":{"num_deleted":"0","num_feature":"15","num_nodes":"61","size_leaf_vector":"1"}},{"base_weights":[-9.7466104E-2,1.15222916E-1,-3.9400598E-1,6.598443E-2,2.7425075E-1,-4.1002887E-1,5.578381E-2,4.3840697E-1,-6.2067455E-1,4.662157E-1,-9.1071904E-1,-1.23416126E-1,-8.247528E-1,2.7672154E-1,-2.9075786E-1,5.464136E-1,8.4093586E-2,3.4001064E-2,-7.6436526E-1,5.0502485E-1,-2.6053265E-1,1.0958109E-1,-1E0,2.8390387E-2,-2.914105E-1,-5.934968E-1,-1E0,4.6484628E-1,-4.3390092E-1,-7.869667E-2,-1E0,6.009047E-2,3.0869601E-2,-1.6539628E-2,4.0950555E-2,4.3842774E-2,-4.981282E-3,-6.606748E-2,-1E-1,6.275996E-2,4.239596E-2,-1.4373595E-2,-8.629804E-2,4.259117E-4,9.41469E-2,-1E-1,1E-1,1.1127309E-2,-8.045893E-3,-7.8846216E-2,-2.608854E-2,-8.354004E-2,-3.1669106E-2,-1.7043114E-2,-1E-1,2.2123067E-2,7.688441E-2,-1E-1,3.1468307E-3,-2.544412E-3,-1E-1,-1E-1,5.097595E-2],"categories":[],"categories_nodes":[],"categories_segments":[],"categories_sizes":[],"default_left":[0,0,0,0,0,0,0,0,0,0,0,0,0,0,0,0,0,0,0,0,0,0,0,0,0,0,0,0,0,0,0,0,0,0,0,0,0,0,0,0,0,0,0,0,0,0,0,0,0,0,0,0,0,0,0,0,0,0,0,0,0,0,0],"id":9,"left_children":[1,3,5,7,9,11,13,15,17,19,21,23,25,27,29,31,33,35,37,39,41,43,45,47,49,51,53,55,57,59,61,-1,-1,-1,-1,-1,-1,-1,-1,-1,-1,-1,-1,-1,-1,-1,-1,-1,-1,-1,-1,-1,-1,-1,-1,-1,-1,-1,-1,-1,-1,-1,-1],"loss_changes":[1.9286932E4,1.3943501E3,9.205371E2,3.4773914E4,9.577522E3,1.4659303E4,3.3670795E2,3.373713E3,4.49826E3,1.022187E3,1.8472866E3,1.8599766E3,2.1378398E3,3.5939935E2,3.9980066E2,8.748086E2,1.6725631E3,2.918885E2,1.4344141E3,3.4122266E2,1.2909201E2,1.349516E2,1.0969092E2,3.4568372E2,5.248718E2,1.4937915E3,7.259668E2,1.569401E2,1.9753635E2,1.1022786E2,1.2802527E2,0E0,0E0,0E0,0E0,0E0,0E0,0E0,0E0,0E0,0E0,0E0,0E0,0E0,0E0,0E0,0E0,0E0,0E0,0E0,0E0,0E0,0E0,0E0,0E0,0E0,0E0,0E0,0E0,0E0,0E0,0E0,0E0],"parents":[2147483647,0,0,1,1,2,2,3,3,4,4,5,5,6,6,7,7,8,8,9,9,10,10,11,11,12,12,13,13,14,14,15,15,16,16,17,17,18,18,19,19,20,20,21,21,22,22,23,23,24,24,25,25,26,26,27,27,28,28,29,29,30,30],"right_children":[2,4,6,8,10,12,14,16,18,20,22,24,26,28,30,32,34,36,38,40,42,44,46,48,50,52,54,56,58,60,62,-1,-1,-1,-1,-1,-1,-1,-1,-1,-1,-1,-1,-1,-1,-1,-1,-1,-1,-1,-1,-1,-1,-1,-1,-1,-1,-1,-1,-1,-1,-1,-1],"split_conditions":[8.22192E-2,5E0,1.1611989E2,4.7809055E-1,4.9229318E-1,4.934421E-1,3.2344326E-1,4.2001083E-1,3.1584877E-1,3.9053634E-1,3.2926786E-1,1.19409084E-1,5.482977E-1,6.783633E-1,2.1750004E0,1.18880674E-1,3.1503471E1,2.6969998E0,5.2122875E1,8.086122E-2,3.55111E1,2.4794998E0,1.4839113E2,1.396582E-1,1.6529999E0,3.49999E1,2.2619998E0,1.353401E2,1.8027964E-1,3.0015E0,1.5224999E0,6.009047E-2,3.0869601E-2,-1.6539628E-2,4.0950555E-2,4.3842774E-2,-4.981282E-3,-6.606748E-2,-1E-1,6.275996E-2,4.239596E-2,-1.4373595E-2,-8.629804E-2,4.259117E-4,9.41469E-2,-1E-1,1E-1,1.1127309E-2,-8.045893E-3,-7.8846216E-2,-2.608854E-2,-8.354004E-2,-3.1669106E-2,-1.7043114E-2,-1E-1,2.2123067E-2,7.688441E-2,-1E-1,3.1468307E-3,-2.544412E-3,-1E-1,-1E-1,5.097595E-2],"split_indices":[14,0,1,11,11,11,12,11,12,12,12,14,11,11,2,13,1,2,1,13,1,9,1,13,2,1,2,1,13,10,5,0,0,0,0,0,0,0,0,0,0,0,0,0,0,0,0,0,0,0,0,0,0,0,0,0,0,0,0,0,0,0,0],"split_type":[0,0,0,0,0,0,0,0,0,0,0,0,0,0,0,0,0,0,0,0,0,0,0,0,0,0,0,0,0,0,0,0,0,0,0,0,0,0,0,0,0,0,0,0,0,0,0,0,0,0,0,0,0,0,0,0,0,0,0,0,0,0,0],"sum_hessian":[3.05794E5,1.78074E5,1.2772E5,1.35976E5,4.2098E4,1.23327E5,4.393E3,8.8161E4,4.7815E4,3.623E4,5.868E3,7.2929E4,5.0398E4,2.683E3,1.71E3,6.7564E4,2.0597E4,8.606E3,3.9209E4,3.4394E4,1.836E3,1.538E3,4.33E3,3.8311E4,3.4618E4,2.2315E4,2.8083E4,2.122E3,5.61E2,1.486E3,2.24E2,5.4962E4,1.2602E4,1.1659E4,8.938E3,1.476E3,7.13E3,3.1382E4,7.827E3,1.3686E4,2.0708E4,1.54E3,2.96E2,1.367E3,1.71E2,4.317E3,1.3E1,2.175E4,1.6561E4,2E3,3.2618E4,1.1906E4,1.0409E4,1.056E3,2.7027E4,1.18E3,9.42E2,2.06E2,3.55E2,1.446E3,4E1,1.69E2,5.5E1],"tree_param":{"num_deleted":"0","num_feature":"15","num_nodes":"63","size_leaf_vector":"1"}},{"base_weights":[-9.451755E-2,-1.0291087E-1,1.4738645E-1,-1.9865954E-1,5.3967625E-1,1.0793601E-1,8.794978E-1,-1E0,-1.811899E-1,6.673477E-1,1.3118285E-1,8.702223E-2,1E0,-1.0257632E-1,1E0,-1E0,-5.706702E-1,-2.3332517E-1,-1.20286666E-1,2.0972441E-1,9.2580867E-1,2.1219725E-2,4.4173118E-1,1.8967016E-1,-4.3361653E-2,1E0,-2.3015212E-1,1.6094571E-1,-9.5451206E-1,1E0,-1E0,-1E-1,-8.443166E-2,1E-1,-6.543164E-2,-2.6440624E-2,3.8006858E-3,-5.8291457E-3,-3.759032E-2,9.147721E-3,9.4747245E-2,1E-1,-7.5112545E-4,2.7197788E-2,-8.161889E-3,7.599491E-2,-2.2843532E-2,-2.510266E-2,5.006624E-2,-2.3034522E-2,1.8341651E-2,-1.8465688E-2,1E-1,-1.3288361E-2,-1E-1,9.226841E-2,-1.8462915E-2,-1E-1,-5.8480552E-3,1E-1,2.4710387E-2,-1E-1,3.70476E-3],"categories":[],"categories_nodes":[],"categories_segments":[],"categories_sizes":[],"default_left":[0,0,0,0,0,0,0,0,0,0,0,0,0,0,0,0,0,0,0,0,0,0,0,0,0,0,0,0,0,0,0,0,0,0,0,0,0,0,0,0,0,0,0,0,0,0,0,0,0,0,0,0,0,0,0,0,0,0,0,0,0,0,0],"id":10,"left_children":[1,3,5,7,9,11,13,15,17,19,21,23,25,27,29,31,33,35,37,39,41,43,45,47,49,51,53,55,57,59,61,-1,-1,-1,-1,-1,-1,-1,-1,-1,-1,-1,-1,-1,-1,-1,-1,-1,-1,-1,-1,-1,-1,-1,-1,-1,-1,-1,-1,-1,-1,-1,-1],"loss_changes":[6.2092017E2,1.818409E4,2.960235E2,3.6020674E3,1.9986494E3,2.7706158E2,2.4089844E2,2.166997E2,7.992451E2,3.4532773E3,3.1172974E2,1.2887827E2,1.0248892E2,4.6690876E1,1.220589E2,5.164453E1,1.7039719E2,1.1438164E3,1.8399387E3,9.194958E2,2.8847578E3,1.739978E2,5.0945547E2,7.386165E2,1.7999858E2,1.6312805E1,6.709623E0,4.2318985E1,1.8149837E1,1.9415161E1,2.1713997E1,0E0,0E0,0E0,0E0,0E0,0E0,0E0,0E0,0E0,0E0,0E0,0E0,0E0,0E0,0E0,0E0,0E0,0E0,0E0,0E0,0E0,0E0,0E0,0E0,0E0,0E0,0E0,0E0,0E0,0E0,0E0,0E0],"parents":[2147483647,0,0,1,1,2,2,3,3,4,4,5,5,6,6,7,7,8,8,9,9,10,10,11,11,12,12,13,13,14,14,15,15,16,16,17,17,18,18,19,19,20,20,21,21,22,22,23,23,24,24,25,25,26,26,27,27,28,28,29,29,30,30],"right_children":[2,4,6,8,10,12,14,16,18,20,22,24,26,28,30,32,34,36,38,40,42,44,46,48,50,52,54,56,58,60,62,-1,-1,-1,-1,-1,-1,-1,-1,-1,-1,-1,-1,-1,-1,-1,-1,-1,-1,-1,-1,-1,-1,-1,-1,-1,-1,-1,-1,-1,-1,-1,-1],"split_conditions":[1.0593145E2,4.2854026E-1,4.77727E-1,1.5660002E0,3.4188293E1,1.1E1,1.6529999E0,3.2581225E-1,5E0,4.9835357E-1,5.613421E-1,4.8950315E-1,3.4543353E-1,8E0,9E0,7.739175E-2,1.5885009E-1,4.0062642E-1,1.5287651E-1,4.758069E-1,1.4547719E-1,-3.393E0,1.5457176E-1,7.565006E-2,3.013743E-1,7.34229E-2,4.3119803E-1,1.6744518E-1,3.915E-1,2.3925E0,-2.7596853E0,-1E-1,-8.443166E-2,1E-1,-6.543164E-2,-2.6440624E-2,3.8006858E-3,-5.8291457E-3,-3.759032E-2,9.147721E-3,9.4747245E-2,1E-1,-7.5112545E-4,2.7197788E-2,-8.161889E-3,7.599491E-2,-2.2843532E-2,-2.510266E-2,5.006624E-2,-2.3034522E-2,1.8341651E-2,-1.8465688E-2,1E-1,-1.3288361E-2,-1E-1,9.226841E-2,-1.8462915E-2,-1E-1,-5.8480552E-3,1E-1,2.4710387E-2,-1E-1,3.70476E-3],"split_indices":[1,12,12,2,1,0,2,11,0,11,11,11,11,0,0,14,12,12,14,12,14,6,14,14,12,14,12,14,9,6,9,0,0,0,0,0,0,0,0,0,0,0,0,0,0,0,0,0,0,0,0,0,0,0,0,0,0,0,0,0,0,0,0],"split_type":[0,0,0,0,0,0,0,0,0,0,0,0,0,0,0,0,0,0,0,0,0,0,0,0,0,0,0,0,0,0,0,0,0,0,0,0,0,0,0,0,0,0,0,0,0,0,0,0,0,0,0,0,0,0,0,0,0,0,0,0,0,0,0],"sum_hessian":[3.05794E5,2.95541E5,1.0253E4,2.57216E5,3.8325E4,9.731E3,5.22E2,5.483E3,2.51733E5,2.9198E4,9.127E3,9.625E3,1.06E2,2.04E2,3.18E2,4.298E3,1.185E3,1.35626E5,1.16107E5,1.054E4,1.8658E4,6.742E3,2.385E3,5.385E3,4.24E3,3.9E1,6.7E1,1.57E2,4.7E1,2.97E2,2.1E1,2.084E3,2.214E3,5.4E1,1.131E3,1.21687E5,1.3939E4,9.3446E4,2.2661E4,9.086E3,1.454E3,1.5715E4,2.943E3,1.96E3,4.782E3,1.617E3,7.68E2,2.228E3,3.157E3,2.324E3,1.916E3,1.1E1,2.8E1,6.4E1,3E0,4.8E1,1.09E2,2.6E1,2.1E1,2.61E2,3.6E1,1E0,2E1],"tree_param":{"num_deleted":"0","num_feature":"15","num_nodes":"63","size_leaf_vector":"1"}},{"base_weights":[-9.1810584E-2,2.4585444E-2,-8.803197E-1,1.9024329E-1,-1.4754248E-1,-9.8956287E-1,-5.365119E-1,-7.347433E-1,2.3071136E-1,-9.528463E-2,-3.053519E-1,-4.5199078E-1,-1E0,-3.273456E-1,-8.155529E-1,-8.8292927E-1,-4.540654E-1,2.984757E-1,-1.5385364E-1,-4.6087483E-1,-7.11171E-2,7.280832E-2,-3.2186964E-1,-3.8561577E-1,-9.374795E-1,-4.6232405E-1,-1E0,5.716203E-1,-3.6663795E-1,-5.5084795E-1,-9.805198E-1,-1E-1,-2.5671829E-2,-1E-1,-2.4681766E-2,-1.1719527E-2,3.9926123E-2,-3.6360763E-2,1.8451463E-2,-4.905586E-2,5.5321284E-2,-1.5616322E-2,1.3665465E-3,-1.3672553E-2,2.6624847E-2,-3.5989597E-2,-1.5708717E-2,-7.4497E-2,-2.9680518E-2,-1E-1,-1.6422411E-2,-1.4560575E-2,-6.700733E-2,-1E-1,-2.7574718E-2,1E-1,-2.0495763E-2,-2.8403973E-2,-7.453034E-2,-3.981879E-2,-1E-1,-1E-1,-6.2082108E-2],"categories":[],"categories_nodes":[],"categories_segments":[],"categories_sizes":[],"default_left":[0,0,0,0,0,0,0,0,0,0,0,0,0,0,0,0,0,0,0,0,0,0,0,0,0,0,0,0,0,0,0,0,0,0,0,0,0,0,0,0,0,0,0,0,0,0,0,0,0,0,0,0,0,0,0,0,0,0,0,0,0,0,0],"id":11,"left_children":[1,3,5,7,9,11,13,15,17,19,21,23,25,27,29,31,33,35,37,39,41,43,45,47,49,51,53,55,57,59,61,-1,-1,-1,-1,-1,-1,-1,-1,-1,-1,-1,-1,-1,-1,-1,-1,-1,-1,-1,-1,-1,-1,-1,-1,-1,-1,-1,-1,-1,-1,-1,-1],"loss_changes":[2.806591E4,7.598133E3,1.4762129E3,5.083142E3,1.0776377E3,1.6238496E3,5.5327734E2,2.3589966E2,3.390358E3,8.673633E2,2.0310913E2,1.7409229E2,1.1921523E3,1.9214868E2,1.7633911E2,5.0706982E2,2.3137018E2,4.633799E3,1.3835306E3,1.8380542E2,6.640261E2,5.5313595E1,1.9504053E2,1.5197546E2,1.00109314E2,2.7158795E2,3.7030078E2,1.0874656E2,1.6224524E2,1.5162033E2,1.8646362E2,0E0,0E0,0E0,0E0,0E0,0E0,0E0,0E0,0E0,0E0,0E0,0E0,0E0,0E0,0E0,0E0,0E0,0E0,0E0,0E0,0E0,0E0,0E0,0E0,0E0,0E0,0E0,0E0,0E0,0E0,0E0,0E0],"parents":[2147483647,0,0,1,1,2,2,3,3,4,4,5,5,6,6,7,7,8,8,9,9,10,10,11,11,12,12,13,13,14,14,15,15,16,16,17,17,18,18,19,19,20,20,21,21,22,22,23,23,24,24,25,25,26,26,27,27,28,28,29,29,30,30],"right_children":[2,4,6,8,10,12,14,16,18,20,22,24,26,28,30,32,34,36,38,40,42,44,46,48,50,52,54,56,58,60,62,-1,-1,-1,-1,-1,-1,-1,-1,-1,-1,-1,-1,-1,-1,-1,-1,-1,-1,-1,-1,-1,-1,-1,-1,-1,-1,-1,-1,-1,-1,-1,-1],"split_conditions":[4.2854026E-1,1.2155492E-1,2.1688083E-1,2.0009997E0,3.6968768E-1,2.8709996E0,2.871E0,6E0,3.7642065E-1,1.6721852E0,2.1941855E0,4.8743886E-1,3E0,1.4111855E0,-1.1066855E0,1.0090036E2,7.8921684E1,1.5885009E-1,-2.8466854E0,2.3712306E-1,4.353182E1,1.0340491E2,5.2122875E1,3.4453827E1,1.3020013E-1,1.3741735E1,1.6541676E-1,7E0,2.3712306E-1,2.4761494E1,6E0,-1E-1,-2.5671829E-2,-1E-1,-2.4681766E-2,-1.1719527E-2,3.9926123E-2,-3.6360763E-2,1.8451463E-2,-4.905586E-2,5.5321284E-2,-1.5616322E-2,1.3665465E-3,-1.3672553E-2,2.6624847E-2,-3.5989597E-2,-1.5708717E-2,-7.4497E-2,-2.9680518E-2,-1E-1,-1.6422411E-2,-1.4560575E-2,-6.700733E-2,-1E-1,-2.7574718E-2,1E-1,-2.0495763E-2,-2.8403973E-2,-7.453034E-2,-3.981879E-2,-1E-1,-1E-1,-6.2082108E-2],"split_indices":[12,13,13,2,12,2,2,0,12,2,2,12,0,2,10,1,1,12,10,14,1,1,1,1,14,1,14,0,14,1,0,0,0,0,0,0,0,0,0,0,0,0,0,0,0,0,0,0,0,0,0,0,0,0,0,0,0,0,0,0,0,0,0],"split_type":[0,0,0,0,0,0,0,0,0,0,0,0,0,0,0,0,0,0,0,0,0,0,0,0,0,0,0,0,0,0,0,0,0,0,0,0,0,0,0,0,0,0,0,0,0,0,0,0,0,0,0,0,0,0,0,0,0,0,0,0,0,0,0],"sum_hessian":[3.05794E5,2.66462E5,3.9332E4,1.35783E5,1.30679E5,2.9845E4,9.487E3,5.69E3,1.30093E5,9.8173E4,3.2506E4,5.423E3,2.4422E4,5.425E3,4.062E3,3.721E3,1.969E3,1.10604E5,1.9489E4,6.085E3,9.2088E4,1.36E3,3.1146E4,4.774E3,6.49E2,4.129E3,2.0293E4,2.26E2,5.199E3,1.563E3,2.499E3,2.709E3,1.012E3,5.24E2,1.445E3,2.1584E4,8.902E4,1.2031E4,7.458E3,5.913E3,1.72E2,4.5972E4,4.6116E4,6.53E2,7.07E2,2.5304E4,5.842E3,9.43E2,3.831E3,5.01E2,1.48E2,1.637E3,2.492E3,1.9585E4,7.08E2,1.23E2,1.03E2,4.271E3,9.28E2,1.294E3,2.69E2,1.183E3,1.316E3],"tree_param":{"num_deleted":"0","num_feature":"15","num_nodes":"63","size_leaf_vector":"1"}},{"base_weights":[-8.881968E-2,-2.6519728E-1,7.768703E-2,-4.7773457E-1,-1.6332977E-1,-4.4129935E-1,6.662574E-1,-7.0226365E-1,2.6366377E-1,-3.068318E-1,3.309181E-2,-4.8770547E-1,-1.2526825E-1,9.4777876E-1,2.2460614E-1,-8.186235E-1,-4.932572E-1,3.6004462E-4,4.3129382E-1,-7.800624E-1,-2.4333036E-1,2.9352054E-1,-1.5236826E-2,-6.0262597E-1,-3.245005E-1,-3.212566E-1,-1.4419064E-3,3.4225675E-1,1E0,3.7600404E-1,-2.9853296E-1,-8.739703E-2,-3.872734E-2,-5.780211E-2,-2.9704202E-2,-4.0185746E-2,3.594231E-2,6.1011226E-3,5.771963E-2,-9.934043E-2,-3.5014443E-2,-7.300266E-2,-1.262468E-2,-4.7796655E-2,3.135985E-2,-1.061154E-2,2.2302859E-2,-6.4613186E-2,-2.6228413E-2,-5.690167E-2,-7.057264E-3,-3.924766E-2,6.70604E-3,4.358489E-2,-1.4565024E-2,-2.9101437E-2,8.6316615E-2,-3.913119E-3,1E-1,-8.180853E-3,1E-1,-7.367659E-3,-6.432115E-2],"categories":[],"categories_nodes":[],"categories_segments":[],"categories_sizes":[],"default_left":[0,0,0,0,0,0,0,0,0,0,0,0,0,0,0,0,0,0,0,0,0,0,0,0,0,0,0,0,0,0,0,0,0,0,0,0,0,0,0,0,0,0,0,0,0,0,0,0,0,0,0,0,0,0,0,0,0,0,0,0,0,0,0],"id":12,"left_children":[1,3,5,7,9,11,13,15,17,19,21,23,25,27,29,31,33,35,37,39,41,43,45,47,49,51,53,55,57,59,61,-1,-1,-1,-1,-1,-1,-1,-1,-1,-1,-1,-1,-1,-1,-1,-1,-1,-1,-1,-1,-1,-1,-1,-1,-1,-1,-1,-1,-1,-1,-1,-1],"loss_changes":[8.980705E3,3.2148916E3,4.8049863E4,8.0094043E3,2.8296423E3,1.2257988E3,9.164219E3,8.972656E2,4.93661E2,1.7428135E3,5.33463E2,1.3666582E3,2.5981525E2,3.4031992E3,2.2731262E3,5.6552734E2,2.1936816E2,6.2902936E2,3.691046E2,6.286343E2,2.9144463E3,1.0308667E2,7.741531E2,6.328916E2,1.8701621E3,1.1470056E2,4.1403958E2,2.690741E3,1.3506273E4,6.962577E3,4.9917175E2,0E0,0E0,0E0,0E0,0E0,0E0,0E0,0E0,0E0,0E0,0E0,0E0,0E0,0E0,0E0,0E0,0E0,0E0,0E0,0E0,0E0,0E0,0E0,0E0,0E0,0E0,0E0,0E0,0E0,0E0,0E0,0E0],"parents":[2147483647,0,0,1,1,2,2,3,3,4,4,5,5,6,6,7,7,8,8,9,9,10,10,11,11,12,12,13,13,14,14,15,15,16,16,17,17,18,18,19,19,20,20,21,21,22,22,23,23,24,24,25,25,26,26,27,27,28,28,29,29,30,30],"right_children":[2,4,6,8,10,12,14,16,18,20,22,24,26,28,30,32,34,36,38,40,42,44,46,48,50,52,54,56,58,60,62,-1,-1,-1,-1,-1,-1,-1,-1,-1,-1,-1,-1,-1,-1,-1,-1,-1,-1,-1,-1,-1,-1,-1,-1,-1,-1,-1,-1,-1,-1,-1,-1],"split_conditions":[2.8901858E0,1.02390066E-1,4.5749074E-1,4.4865185E-1,4.72225E-1,4.326029E-1,1.5362442E-1,5E0,5.042125E-1,-5.046E0,-3.0206854E0,5E0,-2.9336853E0,4.8245248E-1,6.021648E-1,3.2926786E-1,8.935602E-2,3.5811764E-1,2.6970003E0,3.110218E-1,7.34229E-2,1.914E0,2.8031857E0,7.565006E-2,8.519609E-2,1.3485E0,1.0631115E-1,3.842891E-1,3.7259504E-1,4.220399E-1,1.4547719E-1,-8.739703E-2,-3.872734E-2,-5.780211E-2,-2.9704202E-2,-4.0185746E-2,3.594231E-2,6.1011226E-3,5.771963E-2,-9.934043E-2,-3.5014443E-2,-7.300266E-2,-1.262468E-2,-4.7796655E-2,3.135985E-2,-1.061154E-2,2.2302859E-2,-6.4613186E-2,-2.6228413E-2,-5.690167E-2,-7.057264E-3,-3.924766E-2,6.70604E-3,4.358489E-2,-1.4565024E-2,-2.9101437E-2,8.6316615E-2,-3.913119E-3,1E-1,-8.180853E-3,1E-1,-7.367659E-3,-6.432115E-2],"split_indices":[2,13,11,11,11,11,13,0,11,6,10,0,10,11,11,12,13,12,2,12,14,2,2,14,14,3,13,12,12,12,14,0,0,0,0,0,0,0,0,0,0,0,0,0,0,0,0,0,0,0,0,0,0,0,0,0,0,0,0,0,0,0,0],"split_type":[0,0,0,0,0,0,0,0,0,0,0,0,0,0,0,0,0,0,0,0,0,0,0,0,0,0,0,0,0,0,0,0,0,0,0,0,0,0,0,0,0,0,0,0,0,0,0,0,0,0,0,0,0,0,0,0,0,0,0,0,0,0,0],"sum_hessian":[3.05794E5,1.48495E5,1.57299E5,4.811E4,1.00385E5,8.3591E4,7.3708E4,3.6927E4,1.1183E4,5.8006E4,4.2379E4,7.2887E4,1.0704E4,4.5013E4,2.8695E4,2.3717E4,1.321E4,4.351E3,6.832E3,6.86E3,5.1146E4,6.632E3,3.5747E4,4.2767E4,3.012E4,4.143E3,6.561E3,8.153E3,3.686E4,2.2255E4,6.44E3,2.1018E4,2.699E3,9.222E3,3.988E3,2.052E3,2.299E3,1.932E3,4.9E3,4.583E3,2.277E3,9.916E3,4.123E4,1.67E2,6.465E3,2.5878E4,9.869E3,3.7918E4,4.849E3,1.5343E4,1.4777E4,3.501E3,6.42E2,1.626E3,4.935E3,3.68E3,4.473E3,1.2508E4,2.4352E4,1.3354E4,8.901E3,3.899E3,2.541E3],"tree_param":{"num_deleted":"0","num_feature":"15","num_nodes":"63","size_leaf_vector":"1"}},{"base_weights":[-8.5817225E-2,1.0497308E-1,-7.610895E-1,3.4136197E-1,-1.8418966E-1,-6.235232E-1,-8.317524E-1,-2.825699E-1,3.6964515E-1,-6.1981265E-2,-2.8024676E-1,-5.292163E-1,-9.877562E-1,-4.386993E-1,-9.679157E-1,-8.91426E-1,2.9276404E-1,4.9607033E-1,3.0352816E-1,-2.9793588E-2,-3.1757173E-1,-3.0068785E-1,2.477652E-2,-2.3702644E-1,-1E0,-1E0,-5.9921795E-1,-6.119863E-1,-2.9249954E-1,-4.8053393E-1,-1E0,-1E-1,-5.846822E-2,5.3351424E-3,1E-1,6.2435616E-2,1.8752633E-2,4.76875E-2,-2.457927E-2,-3.341E-2,2.048604E-3,-2.141968E-2,-8.533972E-2,-2.0741895E-2,-3.2856047E-2,5.0830316E-2,-3.6078773E-3,-2.034181E-2,-7.794579E-2,-6.6651404E-2,-1E-1,1.4154564E-2,-1E-1,-7.7034384E-2,1.2941289E-2,-5.441017E-2,-1E-1,-2.0823926E-2,-8.9228556E-2,-1.2702559E-2,-7.822621E-2,-1E-1,9.747896E-2],"categories":[],"categories_nodes":[],"categories_segments":[],"categories_sizes":[],"default_left":[0,0,0,0,0,0,0,0,0,0,0,0,0,0,0,0,0,0,0,0,0,0,0,0,0,0,0,0,0,0,0,0,0,0,0,0,0,0,0,0,0,0,0,0,0,0,0,0,0,0,0,0,0,0,0,0,0,0,0,0,0,0,0],"id":13,"left_children":[1,3,5,7,9,11,13,15,17,19,21,23,25,27,29,31,33,35,37,39,41,43,45,47,49,51,53,55,57,59,61,-1,-1,-1,-1,-1,-1,-1,-1,-1,-1,-1,-1,-1,-1,-1,-1,-1,-1,-1,-1,-1,-1,-1,-1,-1,-1,-1,-1,-1,-1,-1,-1],"loss_changes":[3.9397617E4,1.6298156E4,6.5377734E2,2.3152725E3,1.2589141E3,7.844785E2,2.3806582E3,1.9938099E3,1.0487207E3,3.8830533E2,3.744126E2,3.0029097E3,1.2586865E2,2.897776E2,3.1836738E3,2.0905713E2,5.305345E2,1.7053926E3,7.847602E3,6.415149E2,2.920489E2,1.4614307E2,1.1113211E2,2.199176E2,2.6126855E2,1.3880176E2,1.0010626E2,1.6923462E2,3.1378455E2,1.2724829E3,3.2183203E2,0E0,0E0,0E0,0E0,0E0,0E0,0E0,0E0,0E0,0E0,0E0,0E0,0E0,0E0,0E0,0E0,0E0,0E0,0E0,0E0,0E0,0E0,0E0,0E0,0E0,0E0,0E0,0E0,0E0,0E0,0E0,0E0],"parents":[2147483647,0,0,1,1,2,2,3,3,4,4,5,5,6,6,7,7,8,8,9,9,10,10,11,11,12,12,13,13,14,14,15,15,16,16,17,17,18,18,19,19,20,20,21,21,22,22,23,23,24,24,25,25,26,26,27,27,28,28,29,29,30,30],"right_children":[2,4,6,8,10,12,14,16,18,20,22,24,26,28,30,32,34,36,38,40,42,44,46,48,50,52,54,56,58,60,62,-1,-1,-1,-1,-1,-1,-1,-1,-1,-1,-1,-1,-1,-1,-1,-1,-1,-1,-1,-1,-1,-1,-1,-1,-1,-1,-1,-1,-1,-1,-1,-1],"split_conditions":[3.9689153E-1,7.398114E-2,7.9263205E-4,2.001E0,1.08919755E-1,3.55111E1,2.7840002E0,8.7871765E1,2.6176712E1,3.6836758E-1,1.0593145E2,4.526916E-1,1.4354999E0,5.5122017E1,4.231755E-1,7.045121E1,1.27186844E2,3.7277684E-1,5.0644124E-1,2.4223934E-1,6.1327845E-1,1.2219498E-1,1.8969402E-1,5.7920945E-1,4.6493942E-1,-2.0879998E0,2.0444999E0,4.7988552E-1,4.9809688E-1,5.0533587E-1,5.1692177E1,-1E-1,-5.846822E-2,5.3351424E-3,1E-1,6.2435616E-2,1.8752633E-2,4.76875E-2,-2.457927E-2,-3.341E-2,2.048604E-3,-2.141968E-2,-8.533972E-2,-2.0741895E-2,-3.2856047E-2,5.0830316E-2,-3.6078773E-3,-2.034181E-2,-7.794579E-2,-6.6651404E-2,-1E-1,1.4154564E-2,-1E-1,-7.7034384E-2,1.2941289E-2,-5.441017E-2,-1E-1,-2.0823926E-2,-8.9228556E-2,-1.2702559E-2,-7.822621E-2,-1E-1,9.747896E-2],"split_indices":[12,14,14,2,14,1,2,1,1,12,1,12,5,1,12,1,1,11,11,11,11,14,12,11,12,3,7,12,12,11,1,0,0,0,0,0,0,0,0,0,0,0,0,0,0,0,0,0,0,0,0,0,0,0,0,0,0,0,0,0,0,0,0],"split_type":[0,0,0,0,0,0,0,0,0,0,0,0,0,0,0,0,0,0,0,0,0,0,0,0,0,0,0,0,0,0,0,0,0,0,0,0,0,0,0,0,0,0,0,0,0,0,0,0,0,0,0,0,0,0,0,0,0,0,0,0,0,0,0],"sum_hessian":[3.05794E5,2.3843E5,6.7364E4,1.31186E5,1.07244E5,2.2867E4,4.4497E4,5.688E3,1.25498E5,4.7199E4,6.0045E4,1.8168E4,4.699E3,1.1451E4,3.3046E4,2.763E3,2.925E3,4.309E4,8.2408E4,4.1922E4,5.277E3,5.6274E4,3.771E3,1.2078E4,6.09E3,3.9E3,7.99E2,5.237E3,6.214E3,1.193E4,2.1116E4,1.352E3,1.411E3,2.226E3,6.99E2,3.0434E4,1.2656E4,6.2641E4,1.9767E4,5.943E3,3.5979E4,4.426E3,8.51E2,1.2952E4,4.3322E4,4.2E2,3.351E3,1.1376E4,7.02E2,2.366E3,3.724E3,1.06E2,3.794E3,6.47E2,1.52E2,4.617E3,6.2E2,5.451E3,7.63E2,5.495E3,6.435E3,2.1035E4,8.1E1],"tree_param":{"num_deleted":"0","num_feature":"15","num_nodes":"63","size_leaf_vector":"1"}},{"base_weights":[-8.366698E-2,-1.5402281E-1,-5.33236E-2,-3.1078184E-1,2.9196462E-1,-1.3368839E-1,8.3875254E-2,-2.3342746E-1,-4.1138202E-1,1.3210769E-1,8.49997E-1,-1.5957053E-1,2.7636668E-1,2.042142E-1,-1.2727222E-1,-1.1980949E-1,-2.5481123E-1,-5.2115893E-1,-2.5208157E-1,-1.3097085E-1,6.7722833E-1,6.4979357E-1,9.629535E-1,-4.853968E-2,-2.2744437E-1,1E0,6.912954E-2,8.3853036E-2,3.091837E-1,-2.8868565E-1,4.592679E-1,-3.3303816E-3,-4.912181E-2,-9.932156E-3,-2.7602544E-2,-3.6239997E-2,-5.945887E-2,-2.74792E-2,1.4983653E-2,-2.5623436E-3,-2.3981292E-2,7.840911E-2,-4.032623E-3,7.492116E-2,2.2045575E-2,1E-1,5.497026E-2,-2.7589396E-2,-3.3252647E-3,-1.4876942E-2,-2.9254356E-2,5.6496214E-2,1E-1,-1.441278E-2,1.5240746E-2,1.633874E-2,2.2919108E-4,4.759672E-2,2.494452E-2,-2.4123477E-2,-4.4724464E-2,5.3814232E-2,4.974518E-3],"categories":[],"categories_nodes":[],"categories_segments":[],"categories_sizes":[],"default_left":[0,0,0,0,0,0,0,0,0,0,0,0,0,0,0,0,0,0,0,0,0,0,0,0,0,0,0,0,0,0,0,0,0,0,0,0,0,0,0,0,0,0,0,0,0,0,0,0,0,0,0,0,0,0,0,0,0,0,0,0,0,0,0],"id":14,"left_children":[1,3,5,7,9,11,13,15,17,19,21,23,25,27,29,31,33,35,37,39,41,43,45,47,49,51,53,55,57,59,61,-1,-1,-1,-1,-1,-1,-1,-1,-1,-1,-1,-1,-1,-1,-1,-1,-1,-1,-1,-1,-1,-1,-1,-1,-1,-1,-1,-1,-1,-1,-1,-1],"loss_changes":[6.5280493E2,6.4421724E3,2.35579E3,5.3036035E2,2.1375864E3,1.4300613E3,2.0054265E3,9.3578125E1,5.1793945E2,2.672129E3,1.1937109E2,9.5506934E2,1.341533E3,6.350864E2,2.7129536E3,1.9628339E2,1.06931885E2,2.040376E2,1.1048401E2,1.4408893E2,4.651443E2,8.2043274E1,2.8197583E2,1.6711272E2,4.027417E2,1.3303674E2,1.1345885E2,1.519314E2,2.672893E2,1.688341E2,1.996554E2,0E0,0E0,0E0,0E0,0E0,0E0,0E0,0E0,0E0,0E0,0E0,0E0,0E0,0E0,0E0,0E0,0E0,0E0,0E0,0E0,0E0,0E0,0E0,0E0,0E0,0E0,0E0,0E0,0E0,0E0,0E0,0E0],"parents":[2147483647,0,0,1,1,2,2,3,3,4,4,5,5,6,6,7,7,8,8,9,9,10,10,11,11,12,12,13,13,14,14,15,15,16,16,17,17,18,18,19,19,20,20,21,21,22,22,23,23,24,24,25,25,26,26,27,27,28,28,29,29,30,30],"right_children":[2,4,6,8,10,12,14,16,18,20,22,24,26,28,30,32,34,36,38,40,42,44,46,48,50,52,54,56,58,60,62,-1,-1,-1,-1,-1,-1,-1,-1,-1,-1,-1,-1,-1,-1,-1,-1,-1,-1,-1,-1,-1,-1,-1,-1,-1,-1,-1,-1,-1,-1,-1,-1],"split_conditions":[4E0,3.9310792E-1,2.9771855E0,7.198412E-2,3.49999E1,4.526916E-1,1.5723671E-1,1.6604331E-1,4.419511E1,4.526916E-1,4.1086015E-1,2.3968029E-1,1.3518248E-1,6.9417E-2,4.220399E-1,5.4354977E-2,-1.6965E0,9.518146E-2,2.6942325E-1,6.97296E-2,1.5542635E-1,1.0875E0,1.2294344E-1,-2.2619998E0,1.669456E-1,-2.3668557E-1,-1.3485E0,4.35E-2,1.0496486E-1,2.4427707E-1,2.9561684E-1,-3.3303816E-3,-4.912181E-2,-9.932156E-3,-2.7602544E-2,-3.6239997E-2,-5.945887E-2,-2.74792E-2,1.4983653E-2,-2.5623436E-3,-2.3981292E-2,7.840911E-2,-4.032623E-3,7.492116E-2,2.2045575E-2,1E-1,5.497026E-2,-2.7589396E-2,-3.3252647E-3,-1.4876942E-2,-2.9254356E-2,5.6496214E-2,1E-1,-1.441278E-2,1.5240746E-2,1.633874E-2,2.2919108E-4,4.759672E-2,2.494452E-2,-2.4123477E-2,-4.4724464E-2,5.3814232E-2,4.974518E-3],"split_indices":[0,12,2,13,1,12,13,12,1,12,12,12,13,14,12,13,3,13,13,13,13,5,13,4,13,10,5,10,13,13,13,0,0,0,0,0,0,0,0,0,0,0,0,0,0,0,0,0,0,0,0,0,0,0,0,0,0,0,0,0,0,0,0],"split_type":[0,0,0,0,0,0,0,0,0,0,0,0,0,0,0,0,0,0,0,0,0,0,0,0,0,0,0,0,0,0,0,0,0,0,0,0,0,0,0,0,0,0,0,0,0,0,0,0,0,0,0,0,0,0,0,0,0,0,0,0,0,0,0],"sum_hessian":[3.05794E5,9.2141E4,2.13653E5,6.8178E4,2.3963E4,1.34733E5,7.892E4,3.8546E4,2.9632E4,1.8629E4,5.334E3,1.26735E5,7.998E3,5.027E4,2.865E4,6.108E3,3.2438E4,1.754E4,1.2092E4,1.2566E4,6.063E3,1.929E3,3.405E3,4.8083E4,7.8652E4,1.615E3,6.383E3,2.342E4,2.685E4,2.2468E4,6.182E3,4.956E3,1.152E3,3.896E3,2.8542E4,5.551E3,1.1989E4,1.1446E4,6.46E2,6.387E3,6.179E3,5.277E3,7.86E2,1.565E3,3.64E2,1.983E3,1.422E3,3.027E3,4.5056E4,3.5616E4,4.3036E4,7.12E2,9.03E2,1.792E3,4.591E3,1.1856E4,1.1564E4,7.077E3,1.9773E4,1.7297E4,5.171E3,5.183E3,9.99E2],"tree_param":{"num_deleted":"0","num_feature":"15","num_nodes":"63","size_leaf_vector":"1"}},{"base_weights":[-8.194454E-2,3.0629788E-2,-1.8633471E-1,1.3161238E-1,-4.5286435E-1,-1.189284E-1,-2.819142E-1,-1.3996539E-1,2.0439926E-1,-4.6641126E-1,-1.0056536E-1,-2.3861991E-1,-5.644777E-2,-1.0570588E-1,-4.62916E-1,-3.3563456E-1,-6.902251E-2,2.5674766E-1,4.507488E-3,7.835302E-2,-7.2494143E-1,7.051495E-1,-3.0419502E-1,-5.162517E-1,-2.1417406E-1,-3.635617E-1,-4.554836E-2,-1.9547591E-2,-1.9318517E-1,-6.764712E-1,-3.8007414E-1,-2.4233775E-3,-5.4896053E-2,-4.4678044E-2,-3.2392086E-3,-2.848892E-3,3.6719263E-2,-1.04701575E-2,1.716901E-2,-3.0890628E-4,2.5281994E-2,-7.02963E-2,-1E-1,4.1088846E-2,1E-1,2.745843E-2,-6.829158E-2,2.771893E-3,-6.311706E-2,-1.3144641E-2,-2.8606439E-2,-7.759876E-2,-8.623919E-3,-3.749993E-2,-1.7882877E-3,1.6687157E-3,-1.5188492E-2,7.0543825E-3,-2.2650415E-2,-4.9536493E-2,-8.945077E-2,-2.0823093E-2,-4.901433E-2],"categories":[],"categories_nodes":[],"categories_segments":[],"categories_sizes":[],"default_left":[0,0,0,0,0,0,0,0,0,0,0,0,0,0,0,0,0,0,0,0,0,0,0,0,0,0,0,0,0,0,0,0,0,0,0,0,0,0,0,0,0,0,0,0,0,0,0,0,0,0,0,0,0,0,0,0,0,0,0,0,0,0,0],"id":15,"left_children":[1,3,5,7,9,11,13,15,17,19,21,23,25,27,29,31,33,35,37,39,41,43,45,47,49,51,53,55,57,59,61,-1,-1,-1,-1,-1,-1,-1,-1,-1,-1,-1,-1,-1,-1,-1,-1,-1,-1,-1,-1,-1,-1,-1,-1,-1,-1,-1,-1,-1,-1,-1,-1],"loss_changes":[3.593638E3,7.1838013E3,1.02215674E3,2.4060122E3,1.2118994E2,6.958352E2,2.09271E3,3.5707794E2,1.0044004E3,3.447731E3,1.5537448E2,2.1637158E2,2.0463313E2,2.5060971E2,5.7210156E2,4.5466418E2,2.6129074E2,2.3963726E3,3.6381744E2,1.119944E2,1.6717188E2,3.755287E1,1.6593835E2,1.6139844E2,1.743722E2,2.3947034E2,5.3816943E2,8.036949E1,1.4502014E2,3.5620947E2,4.4097705E2,0E0,0E0,0E0,0E0,0E0,0E0,0E0,0E0,0E0,0E0,0E0,0E0,0E0,0E0,0E0,0E0,0E0,0E0,0E0,0E0,0E0,0E0,0E0,0E0,0E0,0E0,0E0,0E0,0E0,0E0,0E0,0E0],"parents":[2147483647,0,0,1,1,2,2,3,3,4,4,5,5,6,6,7,7,8,8,9,9,10,10,11,11,12,12,13,13,14,14,15,15,16,16,17,17,18,18,19,19,20,20,21,21,22,22,23,23,24,24,25,25,26,26,27,27,28,28,29,29,30,30],"right_children":[2,4,6,8,10,12,14,16,18,20,22,24,26,28,30,32,34,36,38,40,42,44,46,48,50,52,54,56,58,60,62,-1,-1,-1,-1,-1,-1,-1,-1,-1,-1,-1,-1,-1,-1,-1,-1,-1,-1,-1,-1,-1,-1,-1,-1,-1,-1,-1,-1,-1,-1,-1,-1],"split_conditions":[1.18880674E-1,3.994538E-1,4.958744E-1,1.6059925E-1,2.5665E0,2.4142447E1,3.842891E-1,1.6148849E-1,4.7512048E-1,4.8812002E-1,4.6724284E-1,2.066542E-1,2.1288443E-1,5.926844E-1,1.581613E-1,5.6613296E-2,1.6529999E0,2.8709996E0,-4.785E0,-2.4116855E0,2.1315E0,1.8705E0,2.9771855E0,-1.7835E0,1.6498084E-1,1.7400001E0,1.5660002E0,1.8705E0,2.4551854E0,3.0450003E0,2.8031852E0,-2.4233775E-3,-5.4896053E-2,-4.4678044E-2,-3.2392086E-3,-2.848892E-3,3.6719263E-2,-1.04701575E-2,1.716901E-2,-3.0890628E-4,2.5281994E-2,-7.02963E-2,-1E-1,4.1088846E-2,1E-1,2.745843E-2,-6.829158E-2,2.771893E-3,-6.311706E-2,-1.3144641E-2,-2.8606439E-2,-7.759876E-2,-8.623919E-3,-3.749993E-2,-1.7882877E-3,1.6687157E-3,-1.5188492E-2,7.0543825E-3,-2.2650415E-2,-4.9536493E-2,-8.945077E-2,-2.0823093E-2,-4.901433E-2],"split_indices":[13,12,11,12,10,1,12,11,11,11,11,12,11,11,13,13,2,2,6,10,10,5,2,4,13,2,2,5,2,2,2,0,0,0,0,0,0,0,0,0,0,0,0,0,0,0,0,0,0,0,0,0,0,0,0,0,0,0,0,0,0,0,0],"split_type":[0,0,0,0,0,0,0,0,0,0,0,0,0,0,0,0,0,0,0,0,0,0,0,0,0,0,0,0,0,0,0,0,0,0,0,0,0,0,0,0,0,0,0,0,0,0,0,0,0,0,0,0,0,0,0,0,0,0,0,0,0,0,0],"sum_hessian":[3.05794E5,1.4713E5,1.58664E5,1.21711E5,2.5419E4,9.3048E4,6.5616E4,2.5725E4,9.5986E4,2.4477E4,9.42E2,3.1911E4,6.1137E4,3.325E4,3.2366E4,6.843E3,1.8882E4,7.6065E4,1.9921E4,7.878E3,1.6599E4,1.89E2,7.53E2,2.579E3,2.9332E4,2.093E3,5.9044E4,1.6753E4,1.6497E4,9.042E3,2.3324E4,2.783E3,4.06E3,1.667E3,1.7215E4,2.1232E4,5.4833E4,1.205E4,7.871E3,5.372E3,2.506E3,1.6151E4,4.48E2,1.6E2,2.9E1,2.98E2,4.55E2,4.5E2,2.129E3,1.3641E4,1.5691E4,8.4E2,1.253E3,4.572E3,5.4472E4,1.3153E4,3.6E3,1.85E3,1.4647E4,4.943E3,4.099E3,9.109E3,1.4215E4],"tree_param":{"num_deleted":"0","num_feature":"15","num_nodes":"63","size_leaf_vector":"1"}},{"base_weights":[-7.866668E-2,-3.2911727E-1,1E0,-4.791786E-1,1.2945239E-1,2.0291084E-1,1E0,-5.9984916E-1,-4.2896375E-1,-4.131452E-2,2.3579583E-1,-1.959478E-2,4.0738198E-1,5.080449E-1,1E0,-7.399358E-1,-3.4863228E-1,-4.65313E-1,-2.7226543E-1,-1.084439E-1,2.811924E-1,-1.2349225E-1,4.0828878E-1,3.2718515E-1,-1.9974923E-1,1.8236609E-1,7.899441E-1,2.6782086E-1,8.0396646E-1,7.905235E-1,1E0,-9.815868E-2,-6.1450124E-2,-4.550825E-2,-1.8221196E-2,-5.4173704E-2,-3.7972894E-2,-1.5212898E-2,-3.502624E-2,-2.5964519E-2,-7.400347E-4,5.4129012E-2,2.1306986E-2,-2.8563341E-2,2.6996557E-2,7.086732E-2,7.642172E-4,2.835165E-2,1E-1,-5.9106704E-2,-5.195054E-3,3.8332243E-2,-5.235186E-3,9.567438E-2,1.233628E-2,7.4395075E-2,1.2774321E-2,3.950432E-2,9.205293E-2,1E-1,5.3528972E-2,1E-1,7.0022695E-2],"categories":[],"categories_nodes":[],"categories_segments":[],"categories_sizes":[],"default_left":[0,0,0,0,0,0,0,0,0,0,0,0,0,0,0,0,0,0,0,0,0,0,0,0,0,0,0,0,0,0,0,0,0,0,0,0,0,0,0,0,0,0,0,0,0,0,0,0,0,0,0,0,0,0,0,0,0,0,0,0,0,0,0],"id":16,"left_children":[1,3,5,7,9,11,13,15,17,19,21,23,25,27,29,31,33,35,37,39,41,43,45,47,49,51,53,55,57,59,61,-1,-1,-1,-1,-1,-1,-1,-1,-1,-1,-1,-1,-1,-1,-1,-1,-1,-1,-1,-1,-1,-1,-1,-1,-1,-1,-1,-1,-1,-1,-1,-1],"loss_changes":[8.397747E4,1.7131152E4,5.4218633E3,1.1360312E3,1.1147128E3,3.8844678E2,3.1821523E3,1.9389551E3,7.541875E2,5.1008685E2,2.344387E3,2.5569255E2,3.8268073E2,9.3484424E2,1.6955078E2,1.0711816E3,3.4941113E2,7.0278516E2,2.3362866E2,2.979126E2,7.168436E1,7.830292E2,3.0756982E3,4.846054E1,1.5569382E2,1.3233215E2,1.8282202E2,4.8435358E2,2.8015723E2,3.469878E2,4.251328E2,0E0,0E0,0E0,0E0,0E0,0E0,0E0,0E0,0E0,0E0,0E0,0E0,0E0,0E0,0E0,0E0,0E0,0E0,0E0,0E0,0E0,0E0,0E0,0E0,0E0,0E0,0E0,0E0,0E0,0E0,0E0,0E0],"parents":[2147483647,0,0,1,1,2,2,3,3,4,4,5,5,6,6,7,7,8,8,9,9,10,10,11,11,12,12,13,13,14,14,15,15,16,16,17,17,18,18,19,19,20,20,21,21,22,22,23,23,24,24,25,25,26,26,27,27,28,28,29,29,30,30],"right_children":[2,4,6,8,10,12,14,16,18,20,22,24,26,28,30,32,34,36,38,40,42,44,46,48,50,52,54,56,58,60,62,-1,-1,-1,-1,-1,-1,-1,-1,-1,-1,-1,-1,-1,-1,-1,-1,-1,-1,-1,-1,-1,-1,-1,-1,-1,-1,-1,-1,-1,-1,-1,-1],"split_conditions":[4.0838555E-1,4.9229318E-1,4.690789E-1,-3.1076853E0,2.8710005E0,2.9771855E0,2.8709996E0,2.9654387E-1,4.2702535E-1,6.783633E-1,3.2344326E-1,1.18880674E-1,4.5749074E-1,4.5421848E-1,4.8396182E-1,2.8031857E0,4.2886078E-1,1.2228138E-1,1.396582E-1,2.629185E0,1.4202909E-1,6.36762E-1,1.5636194E-1,2.9145E0,4.3984452E-1,1.18183464E-1,1.837321E-1,-3.1076853E0,5.0533587E-1,9.97131E-2,2.188505E-1,-9.815868E-2,-6.1450124E-2,-4.550825E-2,-1.8221196E-2,-5.4173704E-2,-3.7972894E-2,-1.5212898E-2,-3.502624E-2,-2.5964519E-2,-7.400347E-4,5.4129012E-2,2.1306986E-2,-2.8563341E-2,2.6996557E-2,7.086732E-2,7.642172E-4,2.835165E-2,1E-1,-5.9106704E-2,-5.195054E-3,3.8332243E-2,-5.235186E-3,9.567438E-2,1.233628E-2,7.4395075E-2,1.2774321E-2,3.950432E-2,9.205293E-2,1E-1,5.3528972E-2,1E-1,7.0022695E-2],"split_indices":[12,11,11,10,2,2,2,12,11,11,12,13,11,12,11,2,11,13,13,2,13,11,13,7,11,13,13,10,11,13,13,0,0,0,0,0,0,0,0,0,0,0,0,0,0,0,0,0,0,0,0,0,0,0,0,0,0,0,0,0,0,0,0],"split_type":[0,0,0,0,0,0,0,0,0,0,0,0,0,0,0,0,0,0,0,0,0,0,0,0,0,0,0,0,0,0,0,0,0,0,0,0,0,0,0,0,0,0,0,0,0,0,0,0,0,0,0,0,0,0,0,0,0,0,0,0,0,0,0],"sum_hessian":[3.05794E5,2.48946E5,5.6848E4,1.87567E5,6.1379E4,8.535E3,4.8313E4,5.511E4,1.32457E5,2.3555E4,3.7824E4,4.088E3,4.447E3,1.3155E4,3.5158E4,3.5378E4,1.9732E4,1.07513E5,2.4944E4,1.9498E4,4.057E3,1.2269E4,2.5555E4,1.397E3,2.691E3,2.802E3,1.645E3,7.263E3,5.892E3,3.909E3,3.1249E4,1.2084E4,2.3294E4,1.2032E4,7.7E3,5.679E4,5.0723E4,9.822E3,1.5122E4,7.809E3,1.1689E4,8.39E2,3.218E3,8.689E3,3.58E3,1.4604E4,1.0951E4,1.33E3,6.7E1,7.36E2,1.955E3,1.509E3,1.293E3,1.315E3,3.3E2,1.649E3,5.614E3,1.309E3,4.583E3,1.5E3,2.409E3,2.6497E4,4.752E3],"tree_param":{"num_deleted":"0","num_feature":"15","num_nodes":"63","size_leaf_vector":"1"}},{"base_weights":[-7.602316E-2,1.2409427E-1,-5.571946E-1,2.6651365E-1,-1.7102645E-1,-4.4080585E-1,-6.005884E-1,-4.351517E-1,3.0953702E-1,9.575868E-3,-2.1511078E-1,-3.7734467E-1,-1E0,-4.023196E-1,-1E0,-5.599845E-1,-1.0580154E-1,3.8977683E-1,-1.5396237E-1,4.6324622E-2,-4.7688663E-1,-2.3624831E-1,8.161884E-2,-2.048058E-1,-5.546378E-1,-1E0,-3.8907164E-1,-1.16549805E-1,-8.199967E-1,-6.5776443E-1,-1E0,-1E-1,-7.4744574E-3,6.568596E-2,-2.459427E-2,2.4000648E-2,5.175845E-2,-2.0989787E-3,-3.4024235E-2,-4.874518E-2,1.2204525E-2,-1E-1,-2.9776573E-2,-9.638661E-3,-2.8080821E-2,1E-1,3.27853E-3,-2.7520755E-2,2.3688342E-2,-8.8093534E-2,-4.6058737E-2,-6.165736E-3,-1E-1,-2.1068525E-2,-1E-1,6.892907E-3,-2.9823875E-2,-6.610553E-2,-9.2693835E-2,-4.6444457E-2,-8.1513554E-2,-1E-1,-4.2626254E-2],"categories":[],"categories_nodes":[],"categories_segments":[],"categories_sizes":[],"default_left":[0,0,0,0,0,0,0,0,0,0,0,0,0,0,0,0,0,0,0,0,0,0,0,0,0,0,0,0,0,0,0,0,0,0,0,0,0,0,0,0,0,0,0,0,0,0,0,0,0,0,0,0,0,0,0,0,0,0,0,0,0,0,0],"id":17,"left_children":[1,3,5,7,9,11,13,15,17,19,21,23,25,27,29,31,33,35,37,39,41,43,45,47,49,51,53,55,57,59,61,-1,-1,-1,-1,-1,-1,-1,-1,-1,-1,-1,-1,-1,-1,-1,-1,-1,-1,-1,-1,-1,-1,-1,-1,-1,-1,-1,-1,-1,-1,-1,-1],"loss_changes":[2.9445553E4,9.077747E3,4.530957E2,4.397967E3,5.5972876E2,1.0791235E3,5.4702754E3,3.4590356E2,5.1050264E3,2.4668527E2,3.5447144E2,6.8711035E2,7.738745E1,5.31559E3,8.2353125E2,1.3777437E3,2.4791153E2,2.2394355E3,5.017491E2,5.186353E2,1.642851E2,3.2868555E2,1.8976273E2,3.5436362E2,3.392307E2,7.2697754E1,4.6805653E1,8.912877E2,3.0624902E2,2.1365967E2,1.1672461E2,0E0,0E0,0E0,0E0,0E0,0E0,0E0,0E0,0E0,0E0,0E0,0E0,0E0,0E0,0E0,0E0,0E0,0E0,0E0,0E0,0E0,0E0,0E0,0E0,0E0,0E0,0E0,0E0,0E0,0E0,0E0,0E0],"parents":[2147483647,0,0,1,1,2,2,3,3,4,4,5,5,6,6,7,7,8,8,9,9,10,10,11,11,12,12,13,13,14,14,15,15,16,16,17,17,18,18,19,19,20,20,21,21,22,22,23,23,24,24,25,25,26,26,27,27,28,28,29,29,30,30],"right_children":[2,4,6,8,10,12,14,16,18,20,22,24,26,28,30,32,34,36,38,40,42,44,46,48,50,52,54,56,58,60,62,-1,-1,-1,-1,-1,-1,-1,-1,-1,-1,-1,-1,-1,-1,-1,-1,-1,-1,-1,-1,-1,-1,-1,-1,-1,-1,-1,-1,-1,-1,-1,-1],"split_conditions":[3.7394902E-1,9.312098E-2,2.8709996E0,2.0879998E0,1.3518248E-1,4.8743886E-1,4.4139856E-1,3.093235E-1,4.9960163E-1,5.841653E-1,1.0593145E2,5.220066E-1,8E0,5.314821E-1,4.9835357E-1,8.4201645E1,1.5885009E-1,2.9579995E0,3.33517E-1,2.1750004E0,1.0567301E-1,1.1602406E-1,1.7094344E-1,7.3511826E1,-4.263E0,7.121257E-2,3.915E0,1.17568955E-1,-3.393E0,4.5840278E-1,2.2616015E-1,-1E-1,-7.4744574E-3,6.568596E-2,-2.459427E-2,2.4000648E-2,5.175845E-2,-2.0989787E-3,-3.4024235E-2,-4.874518E-2,1.2204525E-2,-1E-1,-2.9776573E-2,-9.638661E-3,-2.8080821E-2,1E-1,3.27853E-3,-2.7520755E-2,2.3688342E-2,-8.8093534E-2,-4.6058737E-2,-6.165736E-3,-1E-1,-2.1068525E-2,-1E-1,6.892907E-3,-2.9823875E-2,-6.610553E-2,-9.2693835E-2,-4.6444457E-2,-8.1513554E-2,-1E-1,-4.2626254E-2],"split_indices":[12,14,2,2,13,12,12,11,11,11,1,11,0,11,11,1,12,2,12,2,13,14,12,1,6,13,6,13,6,12,14,0,0,0,0,0,0,0,0,0,0,0,0,0,0,0,0,0,0,0,0,0,0,0,0,0,0,0,0,0,0,0,0],"split_type":[0,0,0,0,0,0,0,0,0,0,0,0,0,0,0,0,0,0,0,0,0,0,0,0,0,0,0,0,0,0,0,0,0,0,0,0,0,0,0,0,0,0,0,0,0,0,0,0,0,0,0,0,0,0,0,0,0,0,0,0,0,0,0],"sum_hessian":[3.05794E5,2.15973E5,8.9821E4,1.45674E5,7.0299E4,2.44E4,6.5421E4,8.415E3,1.37259E5,1.3793E4,5.6506E4,2.2468E4,1.932E3,4.4534E4,2.0887E4,6.101E3,2.314E3,1.17004E5,2.0255E4,1.2826E4,9.67E2,5.2749E4,3.757E3,1.1389E4,1.1079E4,1.721E3,2.11E2,2.6444E4,1.809E4,7.047E3,1.384E4,3.111E3,2.99E3,3.58E2,1.956E3,5.3876E4,6.3128E4,1.182E4,8.435E3,1.592E3,1.1234E4,9.4E1,8.73E2,1.2747E4,4.0002E4,1.65E2,3.592E3,9.824E3,1.565E3,2.475E3,8.604E3,8.3E1,1.638E3,2.04E2,7E0,1.3086E4,1.3358E4,7.282E3,1.0808E4,3.166E3,3.881E3,1.3481E4,3.59E2],"tree_param":{"num_deleted":"0","num_feature":"15","num_nodes":"63","size_leaf_vector":"1"}},{"base_weights":[-7.3229E-2,-1.7191781E-1,8.331423E-1,-2.798185E-1,-1.06571905E-1,1E0,1.0859136E-1,-3.2668215E-1,1.5144092E-2,-1.4763345E-1,3.5976896E-1,1E0,6.395408E-1,7.7919495E-1,9.1293894E-2,-3.765775E-1,-2.561408E-1,-9.224631E-2,1.0439508E-1,-1.20401E-1,-2.2319461E-1,6.6594166E-1,-1.3576871E-1,1E0,8.863536E-1,2.2357708E-1,8.907472E-1,-2.9438462E-3,1E0,-2.3801751E-1,1.06786E-1,-1.4979121E-2,-3.874534E-2,-5.936987E-2,-2.4220506E-2,-2.0280099E-2,-7.1511054E-3,-1.8887531E-3,2.1920351E-2,-1.6779842E-2,2.1936782E-2,-2.044527E-2,-3.9714407E-2,7.1588054E-2,3.9432954E-2,7.2254846E-3,-2.6622543E-2,2.8689576E-2,1E-1,6.1963577E-2,1E-1,8.349897E-2,1.855511E-2,1E-1,7.839667E-2,-4.692567E-2,3.5090044E-2,1.020963E-2,1E-1,1.6487336E-2,-5.221508E-2,-1.0008319E-2,1.450513E-2],"categories":[],"categories_nodes":[],"categories_segments":[],"categories_sizes":[],"default_left":[0,0,0,0,0,0,0,0,0,0,0,0,0,0,0,0,0,0,0,0,0,0,0,0,0,0,0,0,0,0,0,0,0,0,0,0,0,0,0,0,0,0,0,0,0,0,0,0,0,0,0,0,0,0,0,0,0,0,0,0,0,0,0],"id":18,"left_children":[1,3,5,7,9,11,13,15,17,19,21,23,25,27,29,31,33,35,37,39,41,43,45,47,49,51,53,55,57,59,61,-1,-1,-1,-1,-1,-1,-1,-1,-1,-1,-1,-1,-1,-1,-1,-1,-1,-1,-1,-1,-1,-1,-1,-1,-1,-1,-1,-1,-1,-1,-1,-1],"loss_changes":[2.7353398E4,1.9443584E3,4.7026973E3,1.4378203E3,3.2890693E3,9.673262E2,8.077E1,3.1569922E2,1.3673425E2,3.2477246E2,2.109143E3,3.3121094E1,7.791814E2,6.901712E1,3.4756798E1,1.2950977E2,1.7466675E2,1.4811741E1,1.1028522E2,1.8688829E3,1.3616699E2,1.1593286E2,1.4416481E2,1.281377E3,1.9148145E2,6.508537E1,1.3265845E2,1.3451984E1,2.7690765E1,3.525231E1,5.1461548E1,0E0,0E0,0E0,0E0,0E0,0E0,0E0,0E0,0E0,0E0,0E0,0E0,0E0,0E0,0E0,0E0,0E0,0E0,0E0,0E0,0E0,0E0,0E0,0E0,0E0,0E0,0E0,0E0,0E0,0E0,0E0,0E0],"parents":[2147483647,0,0,1,1,2,2,3,3,4,4,5,5,6,6,7,7,8,8,9,9,10,10,11,11,12,12,13,13,14,14,15,15,16,16,17,17,18,18,19,19,20,20,21,21,22,22,23,23,24,24,25,25,26,26,27,27,28,28,29,29,30,30],"right_children":[2,4,6,8,10,12,14,16,18,20,22,24,26,28,30,32,34,36,38,40,42,44,46,48,50,52,54,56,58,60,62,-1,-1,-1,-1,-1,-1,-1,-1,-1,-1,-1,-1,-1,-1,-1,-1,-1,-1,-1,-1,-1,-1,-1,-1,-1,-1,-1,-1,-1,-1,-1,-1],"split_conditions":[4.401992E-1,2.9889376E1,1.3672744E-1,4.1086015E-1,4.0326512E-1,1.5018779E-1,1.5099415E-1,5E0,4.8812002E-1,1.7902413E-1,1.0970807E-1,1.299159E-1,5.0533587E-1,-2.3668557E-1,-2.001E0,1.7252356E-1,1.5710315E-1,-1.2615E0,-1.8705E0,5.868244E-1,3.2189999E0,9.2449084E-2,1.4271244E-1,4.8528117E-1,3.0449998E-1,-1.8705E0,5.111345E-1,5.123384E-1,-8.265E-1,-3.915E-1,-2.3925E0,-1.4979121E-2,-3.874534E-2,-5.936987E-2,-2.4220506E-2,-2.0280099E-2,-7.1511054E-3,-1.8887531E-3,2.1920351E-2,-1.6779842E-2,2.1936782E-2,-2.044527E-2,-3.9714407E-2,7.1588054E-2,3.9432954E-2,7.2254846E-3,-2.6622543E-2,2.8689576E-2,1E-1,6.1963577E-2,1E-1,8.349897E-2,1.855511E-2,1E-1,7.839667E-2,-4.692567E-2,3.5090044E-2,1.020963E-2,1E-1,1.6487336E-2,-5.221508E-2,-1.0008319E-2,1.450513E-2],"split_indices":[12,1,14,12,12,13,13,0,11,13,14,13,11,9,3,11,11,4,6,11,5,14,14,11,4,3,11,11,6,5,5,0,0,0,0,0,0,0,0,0,0,0,0,0,0,0,0,0,0,0,0,0,0,0,0,0,0,0,0,0,0,0,0],"split_type":[0,0,0,0,0,0,0,0,0,0,0,0,0,0,0,0,0,0,0,0,0,0,0,0,0,0,0,0,0,0,0,0,0,0,0,0,0,0,0,0,0,0,0,0,0,0,0,0,0,0,0,0,0,0,0,0,0,0,0,0,0,0,0],"sum_hessian":[3.05794E5,2.75769E5,3.0025E4,1.04013E5,1.71756E5,2.3054E4,6.971E3,8.9753E4,1.426E4,1.57858E5,1.3898E4,1.5595E4,7.459E3,1.73E2,6.798E3,5.2564E4,3.7189E4,6.472E3,7.788E3,1.16042E5,4.1816E4,8.59E3,5.308E3,1.2873E4,2.722E3,2.81E3,4.649E3,7.7E1,9.6E1,3.04E2,6.494E3,2.407E3,5.0157E4,1.471E3,3.5718E4,1.019E3,5.453E3,3.756E3,4.032E3,1.01837E5,1.4205E4,3.7753E4,4.063E3,7.253E3,1.337E3,2.046E3,3.262E3,2.522E3,1.0351E4,1.579E3,1.143E3,1.62E2,2.648E3,5.75E2,4.074E3,3.3E1,4.4E1,3.5E1,6.1E1,1.26E2,1.78E2,1.013E3,5.481E3],"tree_param":{"num_deleted":"0","num_feature":"15","num_nodes":"63","size_leaf_vector":"1"}},{"base_weights":[-7.157846E-2,8.824947E-2,-2.2837412E-1,2.3680541E-1,-5.5054605E-1,-1.2134392E-1,-7.3762304E-1,2.7058497E-1,6.502453E-2,-4.59803E-1,-7.20027E-1,-1.3302004E-1,3.0189595E-1,-5.9391266E-1,-8.7277365E-1,5.5541288E-2,3.278763E-1,1.8378676E-1,-3.0478321E-2,-3.5237995E-1,-1E0,-4.0363058E-1,-1E0,-6.320862E-2,-2.4250957E-1,1E0,2.240144E-1,-4.8921213E-1,-8.1079507E-1,-7.3400205E-1,-1E0,-2.175247E-2,1.356819E-2,4.2831995E-2,6.297935E-3,-1.4068472E-2,2.9657563E-2,-4.5657508E-2,5.4961513E-3,-2.9653242E-2,-4.9650025E-2,-1E-1,-3.3966922E-3,-1.2470017E-2,-7.735314E-2,-1E-1,-5.4495748E-2,-1.5862562E-2,-3.1722938E-3,-2.0454628E-2,-3.050088E-2,1.3755999E-2,1E-1,5.9398215E-2,1.2151442E-2,-5.2531183E-2,2.0161558E-2,-2.4598362E-2,-8.917504E-2,-4.981729E-2,-8.261953E-2,-6.75946E-2,-1E-1],"categories":[],"categories_nodes":[],"categories_segments":[],"categories_sizes":[],"default_left":[0,0,0,0,0,0,0,0,0,0,0,0,0,0,0,0,0,0,0,0,0,0,0,0,0,0,0,0,0,0,0,0,0,0,0,0,0,0,0,0,0,0,0,0,0,0,0,0,0,0,0,0,0,0,0,0,0,0,0,0,0,0,0],"id":19,"left_children":[1,3,5,7,9,11,13,15,17,19,21,23,25,27,29,31,33,35,37,39,41,43,45,47,49,51,53,55,57,59,61,-1,-1,-1,-1,-1,-1,-1,-1,-1,-1,-1,-1,-1,-1,-1,-1,-1,-1,-1,-1,-1,-1,-1,-1,-1,-1,-1,-1,-1,-1,-1,-1],"loss_changes":[7.663415E3,1.4371018E4,8.413386E3,7.1288574E2,4.3874414E2,6.3045825E2,5.1960547E2,1.2648882E3,2.2906223E2,1.2219341E3,1.4496743E3,9.487976E2,3.122999E2,2.9436035E2,4.653828E2,4.7281305E2,2.1570469E3,3.2951498E2,4.0764154E2,1.2742639E2,3.1449219E1,6.47431E2,1.05163574E2,2.277286E2,1.14538086E2,2.7615845E1,1.247719E2,2.1898926E2,1.9286548E2,2.1146387E2,1.15319824E2,0E0,0E0,0E0,0E0,0E0,0E0,0E0,0E0,0E0,0E0,0E0,0E0,0E0,0E0,0E0,0E0,0E0,0E0,0E0,0E0,0E0,0E0,0E0,0E0,0E0,0E0,0E0,0E0,0E0,0E0,0E0,0E0],"parents":[2147483647,0,0,1,1,2,2,3,3,4,4,5,5,6,6,7,7,8,8,9,9,10,10,11,11,12,12,13,13,14,14,15,15,16,16,17,17,18,18,19,19,20,20,21,21,22,22,23,23,24,24,25,25,26,26,27,27,28,28,29,29,30,30],"right_children":[2,4,6,8,10,12,14,16,18,20,22,24,26,28,30,32,34,36,38,40,42,44,46,48,50,52,54,56,58,60,62,-1,-1,-1,-1,-1,-1,-1,-1,-1,-1,-1,-1,-1,-1,-1,-1,-1,-1,-1,-1,-1,-1,-1,-1,-1,-1,-1,-1,-1,-1,-1,-1],"split_conditions":[1.2155492E-1,3.9310792E-1,4.220399E-1,7.6225966E-2,3.8442057E-2,1.215E2,2.9579997E0,1.5885009E-1,3.55111E1,4.684022E-1,4.4292858E-1,3.3649895E-1,-2.0879998E0,4.684022E-1,1.9576614E1,2.436E0,3.2487208E-1,2.8901854E0,2.0880005E0,4.4292858E-1,3.915E0,2.9016968E1,3.601619E1,2.7918716E1,3.8799724E-1,6.0899997E-1,2.066542E-1,1.0894338E2,2.0201857E0,4.443714E-1,4.298959E-1,-2.175247E-2,1.356819E-2,4.2831995E-2,6.297935E-3,-1.4068472E-2,2.9657563E-2,-4.5657508E-2,5.4961513E-3,-2.9653242E-2,-4.9650025E-2,-1E-1,-3.3966922E-3,-1.2470017E-2,-7.735314E-2,-1E-1,-5.4495748E-2,-1.5862562E-2,-3.1722938E-3,-2.0454628E-2,-3.050088E-2,1.3755999E-2,1E-1,5.9398215E-2,1.2151442E-2,-5.2531183E-2,2.0161558E-2,-2.4598362E-2,-8.917504E-2,-4.981729E-2,-8.261953E-2,-6.75946E-2,-1E-1],"split_indices":[13,12,12,14,14,1,2,12,1,12,12,12,3,12,1,2,12,2,2,12,5,1,1,1,12,2,12,1,2,12,12,0,0,0,0,0,0,0,0,0,0,0,0,0,0,0,0,0,0,0,0,0,0,0,0,0,0,0,0,0,0,0,0],"split_type":[0,0,0,0,0,0,0,0,0,0,0,0,0,0,0,0,0,0,0,0,0,0,0,0,0,0,0,0,0,0,0,0,0,0,0,0,0,0,0,0,0,0,0,0,0,0,0,0,0,0,0,0,0,0,0,0,0,0,0,0,0,0,0],"sum_hessian":[3.05794E5,1.51433E5,1.54361E5,1.22862E5,2.8571E4,1.27555E5,2.6806E4,1.02671E5,2.0191E4,1.8613E4,9.958E3,1.24132E5,3.423E3,1.2997E4,1.3809E4,2.16E4,8.1071E4,8.999E3,1.1192E4,1.5868E4,2.745E3,6.275E3,3.683E3,7.5803E4,4.8329E4,1.31E2,3.292E3,8.77E3,4.227E3,9.764E3,4.045E3,4.9E3,1.67E4,5.8781E4,2.229E4,2.321E3,6.678E3,1.868E3,9.324E3,1.1441E4,4.427E3,2.711E3,3.4E1,3.579E3,2.696E3,3.167E3,5.16E2,1.8805E4,5.6998E4,3.0072E4,1.8257E4,3.8E1,9.3E1,7.12E2,2.58E3,8.335E3,4.35E2,5.31E2,3.696E3,2.748E3,7.016E3,1.116E3,2.929E3],"tree_param":{"num_deleted":"0","num_feature":"15","num_nodes":"63","size_leaf_vector":"1"}},{"base_weights":[-6.925231E-2,-1.7875676E-1,3.412382E-2,-2.2305489E-1,2.0210737E-1,-1.5321721E-1,9.150525E-1,-3.0232278E-1,-1.5330568E-1,5.8062214E-1,4.6282057E-2,-2.160843E-1,-4.8563544E-2,1E0,3.8230386E-1,-4.493977E-1,-3.755579E-2,-2.0460062E-1,-1.21300235E-1,2.2212774E-1,8.080091E-1,4.801887E-1,-2.0688118E-2,-3.8121498E-1,-4.8899565E-2,-1.4820944E-1,3.1289762E-1,6.2890005E-1,1E0,4.8282415E-1,3.0105988E-2,-5.145914E-2,-3.1893916E-2,1.7256793E-3,-9.340612E-3,-6.502839E-2,-1.939938E-2,-5.941174E-3,-1.9785007E-2,1.3752053E-2,6.921123E-2,6.161039E-2,1E-1,3.133158E-2,8.6651094E-2,1.7443217E-2,-7.941509E-3,-2.550377E-2,-4.380651E-2,-1.2109555E-2,-2.0223926E-3,-2.337199E-2,-1.0724986E-2,8.589118E-2,-1.1605232E-3,6.674271E-2,4.1566793E-2,1E-1,8.3040975E-2,2.3023745E-2,5.5357903E-2,-1.2570354E-2,2.4342338E-2],"categories":[],"categories_nodes":[],"categories_segments":[],"categories_sizes":[],"default_left":[0,0,0,0,0,0,0,0,0,0,0,0,0,0,0,0,0,0,0,0,0,0,0,0,0,0,0,0,0,0,0,0,0,0,0,0,0,0,0,0,0,0,0,0,0,0,0,0,0,0,0,0,0,0,0,0,0,0,0,0,0,0,0],"id":20,"left_children":[1,3,5,7,9,11,13,15,17,19,21,23,25,27,29,31,33,35,37,39,41,43,45,47,49,51,53,55,57,59,61,-1,-1,-1,-1,-1,-1,-1,-1,-1,-1,-1,-1,-1,-1,-1,-1,-1,-1,-1,-1,-1,-1,-1,-1,-1,-1,-1,-1,-1,-1,-1,-1],"loss_changes":[3.461686E3,2.5054834E3,2.5960447E4,7.3538086E2,9.125786E2,8.534131E2,2.5925332E3,2.4244644E3,1.1612146E2,3.6741003E2,3.1865765E2,2.2371396E3,1.7535936E3,1.369832E3,2.5916028E2,3.400786E2,6.808661E1,1.2827527E2,2.064433E2,6.9564E1,1.5205054E2,9.395224E1,1.08892586E2,2.9219092E2,8.336442E1,1.336131E2,1.8642462E3,8.124487E1,5.6347656E1,1.0150928E2,5.420913E1,0E0,0E0,0E0,0E0,0E0,0E0,0E0,0E0,0E0,0E0,0E0,0E0,0E0,0E0,0E0,0E0,0E0,0E0,0E0,0E0,0E0,0E0,0E0,0E0,0E0,0E0,0E0,0E0,0E0,0E0,0E0,0E0],"parents":[2147483647,0,0,1,1,2,2,3,3,4,4,5,5,6,6,7,7,8,8,9,9,10,10,11,11,12,12,13,13,14,14,15,15,16,16,17,17,18,18,19,19,20,20,21,21,22,22,23,23,24,24,25,25,26,26,27,27,28,28,29,29,30,30],"right_children":[2,4,6,8,10,12,14,16,18,20,22,24,26,28,30,32,34,36,38,40,42,44,46,48,50,52,54,56,58,60,62,-1,-1,-1,-1,-1,-1,-1,-1,-1,-1,-1,-1,-1,-1,-1,-1,-1,-1,-1,-1,-1,-1,-1,-1,-1,-1,-1,-1,-1,-1,-1,-1],"split_conditions":[2.8901858E0,4.2714778E-1,4.220399E-1,5E0,1.335471E-1,3.3461246E1,1.7222656E-1,3.110218E-1,6E0,4.4719157E-1,4E0,3.110218E-1,3.6193013E-1,4E0,2.837341E-1,1.2155492E-1,1.2917851E-1,6.0899997E-1,1.7222656E-1,1.9575E0,2.871E0,1.3485E0,2.4359999E0,6.1835356E-2,2.9771857E0,-4.0889997E0,1.0828048E-1,1.5224999E0,1.5099415E-1,2.9771855E0,3.0641854E0,-5.145914E-2,-3.1893916E-2,1.7256793E-3,-9.340612E-3,-6.502839E-2,-1.939938E-2,-5.941174E-3,-1.9785007E-2,1.3752053E-2,6.921123E-2,6.161039E-2,1E-1,3.133158E-2,8.6651094E-2,1.7443217E-2,-7.941509E-3,-2.550377E-2,-4.380651E-2,-1.2109555E-2,-2.0223926E-3,-2.337199E-2,-1.0724986E-2,8.589118E-2,-1.1605232E-3,6.674271E-2,4.1566793E-2,1E-1,8.3040975E-2,2.3023745E-2,5.5357903E-2,-1.2570354E-2,2.4342338E-2],"split_indices":[2,12,12,0,13,1,13,12,0,12,0,12,12,0,13,13,13,2,13,9,2,9,2,13,2,6,13,9,13,2,2,0,0,0,0,0,0,0,0,0,0,0,0,0,0,0,0,0,0,0,0,0,0,0,0,0,0,0,0,0,0,0,0],"split_type":[0,0,0,0,0,0,0,0,0,0,0,0,0,0,0,0,0,0,0,0,0,0,0,0,0,0,0,0,0,0,0,0,0,0,0,0,0,0,0,0,0,0,0,0,0,0,0,0,0,0,0,0,0,0,0,0,0,0,0,0,0,0,0],"sum_hessian":[3.05794E5,1.48495E5,1.57299E5,1.33024E5,1.5471E4,1.29715E5,2.7584E4,6.226E4,7.0764E4,4.51E3,1.0961E4,8.1034E4,4.8681E4,2.0264E4,7.32E3,4.0025E4,2.2235E4,2.7184E4,4.358E4,1.752E3,2.758E3,1.464E3,9.497E3,4.0766E4,4.0268E4,3.8162E4,1.0519E4,9.96E3,1.0304E4,5.694E3,1.626E3,2.6684E4,1.3341E4,1.1222E4,1.1013E4,6.29E2,2.6555E4,2.41E4,1.948E4,1.487E3,2.65E2,1.734E3,1.024E3,1.025E3,4.39E2,2.196E3,7.301E3,1.2666E4,2.81E4,1.1445E4,2.8823E4,1.2356E4,2.5806E4,3.92E3,6.599E3,8.432E3,1.528E3,8.275E3,2.029E3,1.248E3,4.446E3,9.4E2,6.86E2],"tree_param":{"num_deleted":"0","num_feature":"15","num_nodes":"63","size_leaf_vector":"1"}},{"base_weights":[-6.744637E-2,8.8016555E-2,-4.2517114E-1,1.7745571E-1,5.202416E-2,-3.3403686E-1,-4.4539744E-1,2.1512291E-1,8.2830936E-2,2.4652092E-1,-7.9870574E-2,-2.5702304E-1,-8.8978016E-1,-1.5685107E-1,-5.691349E-1,-1.5269059E-1,2.9392225E-1,-4.7668308E-1,1.462194E-1,-7.4831545E-2,3.3233526E-1,8.881115E-2,-1.755619E-1,-1.1576077E-1,-1E0,-2.6088368E-2,-1E0,-3.694295E-2,-2.7990896E-1,-4.009739E-1,-7.4100035E-1,-9.412419E-2,-3.4249255E-3,1.0619436E-2,3.3849183E-2,-9.974896E-2,7.973376E-3,1.7323637E-2,-6.7959726E-3,-1.4442933E-2,5.8716267E-2,3.7012793E-2,2.3327261E-2,5.981529E-3,2.8918028E-2,-1.8390274E-2,2.4448061E-2,-7.036131E-3,-3.5216767E-2,-1E-1,3.7705842E-2,-1.6888518E-2,1E-1,-1E-1,4.1363105E-2,-1.5375957E-2,4.7802216E-5,-9.291237E-3,-3.196945E-2,-5.0160863E-2,-3.240071E-2,-8.5389376E-2,-4.819664E-2],"categories":[],"categories_nodes":[],"categories_segments":[],"categories_sizes":[],"default_left":[0,0,0,0,0,0,0,0,0,0,0,0,0,0,0,0,0,0,0,0,0,0,0,0,0,0,0,0,0,0,0,0,0,0,0,0,0,0,0,0,0,0,0,0,0,0,0,0,0,0,0,0,0,0,0,0,0,0,0,0,0,0,0],"id":21,"left_children":[1,3,5,7,9,11,13,15,17,19,21,23,25,27,29,31,33,35,37,39,41,43,45,47,49,51,53,55,57,59,61,-1,-1,-1,-1,-1,-1,-1,-1,-1,-1,-1,-1,-1,-1,-1,-1,-1,-1,-1,-1,-1,-1,-1,-1,-1,-1,-1,-1,-1,-1,-1,-1],"loss_changes":[1.7006346E4,6.861727E2,1.704375E2,2.1796008E2,3.8992922E3,7.2004346E2,2.706335E3,1.2680774E3,6.179678E2,1.6939075E3,1.4620875E3,1.9960789E3,2.224458E2,3.357215E2,1.532666E3,7.2098676E2,3.0136768E2,5.140308E2,9.057767E1,5.967208E2,1.8130176E2,1.9045212E2,2.0258118E2,1.3943701E2,1.6875366E2,5.585317E1,2.318988E2,5.040673E1,8.3460266E1,2.0739111E2,7.663281E2,0E0,0E0,0E0,0E0,0E0,0E0,0E0,0E0,0E0,0E0,0E0,0E0,0E0,0E0,0E0,0E0,0E0,0E0,0E0,0E0,0E0,0E0,0E0,0E0,0E0,0E0,0E0,0E0,0E0,0E0,0E0,0E0],"parents":[2147483647,0,0,1,1,2,2,3,3,4,4,5,5,6,6,7,7,8,8,9,9,10,10,11,11,12,12,13,13,14,14,15,15,16,16,17,17,18,18,19,19,20,20,21,21,22,22,23,23,24,24,25,25,26,26,27,27,28,28,29,29,30,30],"right_children":[2,4,6,8,10,12,14,16,18,20,22,24,26,28,30,32,34,36,38,40,42,44,46,48,50,52,54,56,58,60,62,-1,-1,-1,-1,-1,-1,-1,-1,-1,-1,-1,-1,-1,-1,-1,-1,-1,-1,-1,-1,-1,-1,-1,-1,-1,-1,-1,-1,-1,-1,-1,-1],"split_conditions":[3.710856E-1,-5.046E0,7.04574E-2,4.954193E1,1.17568955E-1,4.320109E1,4.8396182E-1,2.8031852E0,1.9139998E0,2.629185E0,1.0032185E-1,4.684022E-1,2.542185E0,1.5362442E-1,4.2854026E-1,2.5793274E1,1.332668E1,8.659269E1,2.001E0,1.1233029E2,7.398114E-2,8.532391E1,1.353401E2,3.3943447E1,3.4690178E1,1.0090036E2,4.9364235E-2,9.988377E0,6.768151E-2,8.824075E-2,1.3333899E-1,-9.412419E-2,-3.4249255E-3,1.0619436E-2,3.3849183E-2,-9.974896E-2,7.973376E-3,1.7323637E-2,-6.7959726E-3,-1.4442933E-2,5.8716267E-2,3.7012793E-2,2.3327261E-2,5.981529E-3,2.8918028E-2,-1.8390274E-2,2.4448061E-2,-7.036131E-3,-3.5216767E-2,-1E-1,3.7705842E-2,-1.6888518E-2,1E-1,-1E-1,4.1363105E-2,-1.5375957E-2,4.7802216E-5,-9.291237E-3,-3.196945E-2,-5.0160863E-2,-3.240071E-2,-8.5389376E-2,-4.819664E-2],"split_indices":[12,6,13,1,13,1,11,2,2,2,14,12,2,13,12,1,1,1,5,1,14,1,1,1,1,1,14,1,14,14,14,0,0,0,0,0,0,0,0,0,0,0,0,0,0,0,0,0,0,0,0,0,0,0,0,0,0,0,0,0,0,0,0],"split_type":[0,0,0,0,0,0,0,0,0,0,0,0,0,0,0,0,0,0,0,0,0,0,0,0,0,0,0,0,0,0,0,0,0,0,0,0,0,0,0,0,0,0,0,0,0,0,0,0,0,0,0,0,0,0,0,0,0,0,0,0,0,0,0],"sum_hessian":[3.05794E5,2.13159E5,9.2635E4,6.1163E4,1.51996E5,1.6832E4,7.5803E4,4.3746E4,1.7417E4,6.1421E4,9.0575E4,1.4786E4,2.046E3,2.2752E4,5.3051E4,7.718E3,3.6028E4,1.771E3,1.5646E4,1.2945E4,4.8476E4,3.2784E4,5.7791E4,1.2994E4,1.792E3,2.61E2,1.785E3,1.1525E4,1.1227E4,2.6818E4,2.6233E4,1.006E3,6.712E3,6.914E3,2.9114E4,9.14E2,8.57E2,1.3894E4,1.752E3,1.1715E4,1.23E3,3.5085E4,1.3391E4,2.8642E4,4.142E3,5.6667E4,1.124E3,1.0903E4,2.091E3,1.704E3,8.8E1,2.43E2,1.8E1,1.67E3,1.15E2,2.795E3,8.73E3,1.971E3,9.256E3,1.1617E4,1.5201E4,1.8267E4,7.966E3],"tree_param":{"num_deleted":"0","num_feature":"15","num_nodes":"63","size_leaf_vector":"1"}},{"base_weights":[-6.495045E-2,6.193896E-4,-7.4258015E-2,-1.8905702E-1,1E0,-1.559454E-1,4.6516588E-1,-2.9304532E-2,-2.145275E-1,7.830746E-1,1E0,-2.1836475E-1,-7.696088E-2,1.1174172E-1,5.110671E-1,-5.440977E-2,7.9768956E-2,-2.6876536E-1,1.2302796E-1,2.867815E-1,1E0,1E0,4.6568373E-1,-2.724455E-1,-1.0704327E-1,-1.2667231E-1,1.3456675E-1,-1.2319171E-1,1E0,6.8092674E-1,9.2096835E-2,-8.888159E-3,2.7998243E-3,-2.7354378E-2,1E-1,2.005792E-2,2.235426E-4,2.4854189E-2,9.355947E-2,1E-1,4.3073572E-2,1E-1,1.4411295E-2,3.1405494E-2,1E-1,-3.2849852E-2,-2.0230476E-2,-6.9343336E-3,-2.3228511E-2,-1.7591678E-2,-8.628144E-3,4.909513E-2,2.0111753E-3,-8.954055E-3,-5.8078814E-2,1E-1,2.2183614E-2,3.276808E-2,8.578726E-2,7.959926E-3,3.7025742E-2],"categories":[],"categories_nodes":[],"categories_segments":[],"categories_sizes":[],"default_left":[0,0,0,0,0,0,0,0,0,0,0,0,0,0,0,0,0,0,0,0,0,0,0,0,0,0,0,0,0,0,0,0,0,0,0,0,0,0,0,0,0,0,0,0,0,0,0,0,0,0,0,0,0,0,0,0,0,0,0,0,0],"id":22,"left_children":[1,3,5,7,9,11,13,15,17,19,21,23,25,27,29,31,-1,33,35,37,39,41,43,45,47,49,51,53,55,57,59,-1,-1,-1,-1,-1,-1,-1,-1,-1,-1,-1,-1,-1,-1,-1,-1,-1,-1,-1,-1,-1,-1,-1,-1,-1,-1,-1,-1,-1,-1],"loss_changes":[1.8662732E2,7.3478115E3,1.1799894E4,1.3038586E2,1.481333E2,1.1465562E3,5.711904E2,9.169035E1,5.061764E2,4.9474817E2,1.0666992E2,7.82001E2,1.079606E3,1.0647554E3,2.2180845E3,1.2175657E1,0E0,1.6729907E2,3.5850014E1,3.1109894E1,4.0345215E1,5.1899414E0,3.0815086E1,3.4358838E2,2.0053131E2,1.6531165E2,7.9689954E2,5.194308E1,6.8114746E1,1.3856396E3,3.1215897E1,0E0,0E0,0E0,0E0,0E0,0E0,0E0,0E0,0E0,0E0,0E0,0E0,0E0,0E0,0E0,0E0,0E0,0E0,0E0,0E0,0E0,0E0,0E0,0E0,0E0,0E0,0E0,0E0,0E0,0E0],"parents":[2147483647,0,0,1,1,2,2,3,3,4,4,5,5,6,6,7,7,8,8,9,9,10,10,11,11,12,12,13,13,14,14,15,15,17,17,18,18,19,19,20,20,21,21,22,22,23,23,24,24,25,25,26,26,27,27,28,28,29,29,30,30],"right_children":[2,4,6,8,10,12,14,16,18,20,22,24,26,28,30,32,-1,34,36,38,40,42,44,46,48,50,52,54,56,58,60,-1,-1,-1,-1,-1,-1,-1,-1,-1,-1,-1,-1,-1,-1,-1,-1,-1,-1,-1,-1,-1,-1,-1,-1,-1,-1,-1,-1,-1,-1],"split_conditions":[1.3741735E1,4.6002224E-1,4.1946363E-1,-5.046E0,9.075056E0,4.521868E1,-4.263E0,2.3925E0,4.2854026E-1,4.758069E-1,1.4022845E-1,3.4249154E-1,3.5061288E-1,4.684022E-1,1.3333899E-1,1.2615E0,7.9768956E-2,1.1E1,6.525E-1,3.567E0,2.7405E0,4.437E0,2.1315E0,5E0,6E0,5E0,4E0,2.7405E0,2.2185E0,4E0,2.9145E0,-8.888159E-3,2.7998243E-3,-2.7354378E-2,1E-1,2.005792E-2,2.235426E-4,2.4854189E-2,9.355947E-2,1E-1,4.3073572E-2,1E-1,1.4411295E-2,3.1405494E-2,1E-1,-3.2849852E-2,-2.0230476E-2,-6.9343336E-3,-2.3228511E-2,-1.7591678E-2,-8.628144E-3,4.909513E-2,2.0111753E-3,-8.954055E-3,-5.8078814E-2,1E-1,2.2183614E-2,3.276808E-2,8.578726E-2,7.959926E-3,3.7025742E-2],"split_indices":[1,12,12,5,1,1,5,4,12,12,14,12,12,12,14,8,0,0,8,5,6,6,10,0,0,0,0,8,8,0,8,0,0,0,0,0,0,0,0,0,0,0,0,0,0,0,0,0,0,0,0,0,0,0,0,0,0,0,0,0,0],"split_type":[0,0,0,0,0,0,0,0,0,0,0,0,0,0,0,0,0,0,0,0,0,0,0,0,0,0,0,0,0,0,0,0,0,0,0,0,0,0,0,0,0,0,0,0,0,0,0,0,0,0,0,0,0,0,0,0,0,0,0,0,0],"sum_hessian":[3.05794E5,3.8011E4,2.67783E5,3.2049E4,5.962E3,2.32566E5,3.5217E4,4.408E3,2.7641E4,3.19E3,2.772E3,1.29903E5,1.02663E5,4.049E3,3.1168E4,4.28E3,1.28E2,2.3815E4,3.826E3,1.27E3,1.92E3,2.393E3,3.79E2,8.7427E4,4.2476E4,8.3128E4,1.9535E4,3.377E3,6.72E2,2.2176E4,8.992E3,3.018E3,1.262E3,2.3741E4,7.4E1,2.329E3,1.497E3,1.202E3,6.8E1,1.791E3,1.29E2,2.385E3,8E0,2.99E2,8E1,4.8589E4,3.8838E4,3.2651E4,9.825E3,3.7455E4,4.5673E4,4.747E3,1.4788E4,3.148E3,2.29E2,5.58E2,1.14E2,7.403E3,1.4773E4,8.608E3,3.84E2],"tree_param":{"num_deleted":"0","num_feature":"15","num_nodes":"61","size_leaf_vector":"1"}},{"base_weights":[-6.365831E-2,3.3658683E-2,-5.34559E-1,6.691146E-2,-1.0839526E-1,-6.0477877E-1,-4.1963136E-1,1.5144664E-1,-1.421646E-1,3.8275868E-2,-3.580566E-1,-2.1535254E-1,-8.129833E-1,-1.2091318E-1,-4.57607E-1,-1.906283E-1,1.8724684E-1,-1.500927E-1,2.638592E-1,8.6825185E-2,-8.562881E-2,-6.878258E-1,-2.338204E-1,4.0390287E-3,-6.133787E-1,-6.439185E-1,-1E0,1.7531963E-1,-2.9408547E-1,-3.7798545E-1,-5.9139836E-1,7.076452E-3,-3.3232834E-2,2.8378803E-2,7.7831307E-3,-9.922466E-3,-2.1966087E-2,1.8412575E-2,7.290941E-2,2.4748212E-2,-1.2057546E-2,-3.4270514E-2,2.5220383E-3,-4.7147032E-2,-1E-1,-4.5109916E-2,-8.9776935E-3,-3.079894E-4,1E-1,-6.506973E-2,-1.2077197E-2,-4.7370203E-2,-8.000823E-2,-1E-1,-5.590557E-2,9.727512E-3,1E-1,-5.776736E-2,2.2847606E-3,-4.0089868E-2,3.4646384E-2,-7.377176E-2,-4.29763E-2],"categories":[],"categories_nodes":[],"categories_segments":[],"categories_sizes":[],"default_left":[0,0,0,0,0,0,0,0,0,0,0,0,0,0,0,0,0,0,0,0,0,0,0,0,0,0,0,0,0,0,0,0,0,0,0,0,0,0,0,0,0,0,0,0,0,0,0,0,0,0,0,0,0,0,0,0,0,0,0,0,0,0,0],"id":23,"left_children":[1,3,5,7,9,11,13,15,17,19,21,23,25,27,29,31,33,35,37,39,41,43,45,47,49,51,53,55,57,59,61,-1,-1,-1,-1,-1,-1,-1,-1,-1,-1,-1,-1,-1,-1,-1,-1,-1,-1,-1,-1,-1,-1,-1,-1,-1,-1,-1,-1,-1,-1,-1,-1],"loss_changes":[1.4013713E4,1.1971256E3,4.2212305E2,3.6295825E3,1.7603357E3,2.635125E3,2.2526074E2,1.7908953E3,1.9042041E2,1.8219345E2,7.285139E2,9.891789E2,1.1569209E3,1.15253525E2,1.8731812E2,5.132523E2,1.3982798E3,2.0518237E2,4.1765976E1,7.2510724E2,2.4301997E2,3.30386E2,4.0443243E2,8.10135E1,7.378223E1,3.9748145E2,1.1650879E2,6.410955E1,1.27427864E2,1.8383887E2,1.547893E2,0E0,0E0,0E0,0E0,0E0,0E0,0E0,0E0,0E0,0E0,0E0,0E0,0E0,0E0,0E0,0E0,0E0,0E0,0E0,0E0,0E0,0E0,0E0,0E0,0E0,0E0,0E0,0E0,0E0,0E0,0E0,0E0],"parents":[2147483647,0,0,1,1,2,2,3,3,4,4,5,5,6,6,7,7,8,8,9,9,10,10,11,11,12,12,13,13,14,14,15,15,16,16,17,17,18,18,19,19,20,20,21,21,22,22,23,23,24,24,25,25,26,26,27,27,28,28,29,29,30,30],"right_children":[2,4,6,8,10,12,14,16,18,20,22,24,26,28,30,32,34,36,38,40,42,44,46,48,50,52,54,56,58,60,62,-1,-1,-1,-1,-1,-1,-1,-1,-1,-1,-1,-1,-1,-1,-1,-1,-1,-1,-1,-1,-1,-1,-1,-1,-1,-1,-1,-1,-1,-1,-1,-1],"split_conditions":[4.133075E-1,3.6320302E-1,1.7114104E-1,9.8974444E-2,5.402582E-1,4.958744E-1,2.3490002E0,1.8978976E-1,1.353401E2,4.8950315E-1,1.0893157E-1,4.4971192E-1,4.6334827E-1,5.3711367E-1,4.5555517E-1,5.4354977E-2,9.651836E-2,1.4022845E-1,2.7365348E-1,8.343028E-2,2.6550846E1,4.7597095E1,4.353182E1,9.055708E1,1.2408106E-1,7.9263205E-4,1.19409084E-1,3.567E0,1.1233029E2,7.692468E1,1.4271244E-1,7.076452E-3,-3.3232834E-2,2.8378803E-2,7.7831307E-3,-9.922466E-3,-2.1966087E-2,1.8412575E-2,7.290941E-2,2.4748212E-2,-1.2057546E-2,-3.4270514E-2,2.5220383E-3,-4.7147032E-2,-1E-1,-4.5109916E-2,-8.9776935E-3,-3.079894E-4,1E-1,-6.506973E-2,-1.2077197E-2,-4.7370203E-2,-8.000823E-2,-1E-1,-5.590557E-2,9.727512E-3,1E-1,-5.776736E-2,2.2847606E-3,-4.0089868E-2,3.4646384E-2,-7.377176E-2,-4.29763E-2],"split_indices":[12,12,13,14,11,11,2,11,1,11,13,12,12,11,12,13,13,14,13,14,1,1,1,1,14,14,14,6,1,1,14,0,0,0,0,0,0,0,0,0,0,0,0,0,0,0,0,0,0,0,0,0,0,0,0,0,0,0,0,0,0,0,0],"split_type":[0,0,0,0,0,0,0,0,0,0,0,0,0,0,0,0,0,0,0,0,0,0,0,0,0,0,0,0,0,0,0,0,0,0,0,0,0,0,0,0,0,0,0,0,0,0,0,0,0,0,0,0,0,0,0,0,0,0,0,0,0,0,0],"sum_hessian":[3.05794E5,2.53423E5,5.2371E4,2.05354E5,4.8069E4,3.2503E4,1.9868E4,1.4623E5,5.9124E4,3.0281E4,1.7788E4,1.1325E4,2.1178E4,2.242E3,1.7626E4,1.3853E4,1.32377E5,5.7993E4,1.131E3,2.1757E4,8.524E3,4.865E3,1.2923E4,7.302E3,4.023E3,1.4981E4,6.197E3,8.27E2,1.415E3,1.1055E4,6.571E3,4.87E3,8.983E3,7.0324E4,6.2053E4,3.3502E4,2.4491E4,9.68E2,1.63E2,1.226E4,9.497E3,2.567E3,5.957E3,2.886E3,1.979E3,5.15E3,7.773E3,7.281E3,2.1E1,3.739E3,2.84E2,7.172E3,7.809E3,5.589E3,6.08E2,7.71E2,5.6E1,7.46E2,6.69E2,1.0717E4,3.38E2,3.445E3,3.126E3],"tree_param":{"num_deleted":"0","num_feature":"15","num_nodes":"63","size_leaf_vector":"1"}},{"base_weights":[-6.143611E-2,-2.5960943E-1,2.739212E-1,-3.8630202E-1,-2.0612454E-1,5.769319E-1,1.1579139E-2,-4.3428183E-1,-7.542893E-2,-2.1548982E-1,3.049345E-1,8.818864E-2,1E0,1.7187227E-1,-3.3791248E-2,-3.6353162E-1,-5.5759895E-1,-2.377741E-2,-1.5882032E-1,-3.1129226E-1,-1.690455E-1,7.612195E-1,1.041782E-1,-6.890206E-2,3.5095745E-1,7.2254246E-1,1E0,2.5990793E-1,2.3690537E-2,2.1267958E-1,-6.982676E-2,-2.7910857E-2,-4.264398E-2,-6.243297E-2,-3.9280746E-2,-5.206752E-3,1.24911275E-2,-2.7662544E-2,7.323082E-3,-3.647309E-2,-8.499529E-3,-5.486109E-3,-1.8172326E-2,3.4599703E-2,1E-1,2.6653541E-2,3.712586E-3,-2.6242418E-2,1.7685795E-2,4.62046E-2,1.9427538E-2,4.303356E-2,1E-1,6.443505E-2,1E-1,-5.484185E-3,3.3411775E-2,2.9356793E-2,-3.3733721E-3,-4.537677E-3,5.4882474E-2,-8.118661E-3,3.1114856E-2],"categories":[],"categories_nodes":[],"categories_segments":[],"categories_sizes":[],"default_left":[0,0,0,0,0,0,0,0,0,0,0,0,0,0,0,0,0,0,0,0,0,0,0,0,0,0,0,0,0,0,0,0,0,0,0,0,0,0,0,0,0,0,0,0,0,0,0,0,0,0,0,0,0,0,0,0,0,0,0,0,0,0,0],"id":24,"left_children":[1,3,5,7,9,11,13,15,17,19,21,23,25,27,29,31,33,35,37,39,41,43,45,47,49,51,53,55,57,59,61,-1,-1,-1,-1,-1,-1,-1,-1,-1,-1,-1,-1,-1,-1,-1,-1,-1,-1,-1,-1,-1,-1,-1,-1,-1,-1,-1,-1,-1,-1,-1,-1],"loss_changes":[2.0323041E4,1.302294E3,9.029128E3,8.509121E2,6.4705225E2,1.4983955E4,4.4279083E2,4.3080273E2,3.285921E1,5.904619E2,2.2270685E2,1.2125244E3,4.3664648E2,1.7518716E2,4.2149136E2,1.6657373E2,1.9758154E2,1.9856764E1,7.983063E1,5.2395264E2,1.2937842E2,8.900604E1,1.8399607E1,8.744736E2,1.9108789E2,8.6052563E2,4.5642773E2,1.9683765E2,7.76735E1,5.251663E2,1.7923955E2,0E0,0E0,0E0,0E0,0E0,0E0,0E0,0E0,0E0,0E0,0E0,0E0,0E0,0E0,0E0,0E0,0E0,0E0,0E0,0E0,0E0,0E0,0E0,0E0,0E0,0E0,0E0,0E0,0E0,0E0,0E0,0E0],"parents":[2147483647,0,0,1,1,2,2,3,3,4,4,5,5,6,6,7,7,8,8,9,9,10,10,11,11,12,12,13,13,14,14,15,15,16,16,17,17,18,18,19,19,20,20,21,21,22,22,23,23,24,24,25,25,26,26,27,27,28,28,29,29,30,30],"right_children":[2,4,6,8,10,12,14,16,18,20,22,24,26,28,30,32,34,36,38,40,42,44,46,48,50,52,54,56,58,60,62,-1,-1,-1,-1,-1,-1,-1,-1,-1,-1,-1,-1,-1,-1,-1,-1,-1,-1,-1,-1,-1,-1,-1,-1,-1,-1,-1,-1,-1,-1,-1,-1],"split_conditions":[4.7809055E-1,-3.1076853E0,1.4509958E-1,4.4865185E-1,4.3884525E-1,4.058134E-1,1.7114104E-1,7.575363E-2,9.0689905E-2,5E0,1.2849447E-1,5.7920945E-1,2.5451863E-2,5.654764E-1,-3.0206854E0,3.0489162E-1,3.9991298E-1,4.7375953E-1,4.0955064E-1,3.4394318E-1,7.04574E-2,4.4828922E-1,1.6498084E-1,3.5438645E-1,1.069284E-1,4.6176037E-1,4.220399E-1,4.934421E-1,-4.437E0,3.9689153E-1,4.0497863E-1,-2.7910857E-2,-4.264398E-2,-6.243297E-2,-3.9280746E-2,-5.206752E-3,1.24911275E-2,-2.7662544E-2,7.323082E-3,-3.647309E-2,-8.499529E-3,-5.486109E-3,-1.8172326E-2,3.4599703E-2,1E-1,2.6653541E-2,3.712586E-3,-2.6242418E-2,1.7685795E-2,4.62046E-2,1.9427538E-2,4.303356E-2,1E-1,6.443505E-2,1E-1,-5.484185E-3,3.3411775E-2,2.9356793E-2,-3.3733721E-3,-4.537677E-3,5.4882474E-2,-8.118661E-3,3.1114856E-2],"split_indices":[11,10,13,11,12,12,13,13,13,0,13,11,13,11,10,11,11,11,12,12,13,12,13,12,13,12,12,11,6,12,13,0,0,0,0,0,0,0,0,0,0,0,0,0,0,0,0,0,0,0,0,0,0,0,0,0,0,0,0,0,0,0,0],"split_type":[0,0,0,0,0,0,0,0,0,0,0,0,0,0,0,0,0,0,0,0,0,0,0,0,0,0,0,0,0,0,0,0,0,0,0,0,0,0,0,0,0,0,0,0,0,0,0,0,0,0,0,0,0,0,0,0,0,0,0,0,0,0,0],"sum_hessian":[3.05794E5,1.92211E5,1.13583E5,5.7053E4,1.35158E5,5.2705E4,6.0878E4,4.9424E4,7.629E3,1.32727E5,2.431E3,2.937E4,2.3335E4,1.3429E4,4.7449E4,3.1411E4,1.8013E4,4.713E3,2.916E3,4.3332E4,8.9395E4,7.41E2,1.69E3,1.8382E4,1.0988E4,5.697E3,1.7638E4,8.423E3,5.006E3,6.051E3,4.1398E4,1.3417E4,1.7994E4,1.2817E4,5.196E3,3.961E3,7.52E2,1.934E3,9.82E2,3.5053E4,8.279E3,8.935E3,8.046E4,3.1E2,4.31E2,4.92E2,1.198E3,1.0284E4,8.098E3,6.427E3,4.561E3,4.008E3,1.689E3,3.623E3,1.4015E4,1.607E3,6.816E3,8.77E2,4.129E3,3.424E3,2.627E3,4.0201E4,1.197E3],"tree_param":{"num_deleted":"0","num_feature":"15","num_nodes":"63","size_leaf_vector":"1"}},{"base_weights":[-5.983281E-2,1.9285234E-2,-1.8746635E-1,-3.7327492E-1,3.586502E-2,-1.6900857E-1,-2.2797056E-1,-5.743001E-1,-2.4843915E-1,1.3974138E-1,-5.624813E-1,-1.03478454E-1,-4.7392368E-1,-1.4339451E-1,-5.227851E-1,-6.487745E-1,-2.729474E-1,3.1822747E-1,-2.935305E-1,2.5109729E-2,1.8399683E-1,-5.264156E-1,-6.605515E-1,-9.177625E-2,-2.5226203E-1,-3.1903404E-1,-5.428143E-1,-1.8999745E-1,-1.0293388E-1,-2.2616619E-1,-5.5049235E-1,-9.480593E-2,-6.22566E-2,-7.226922E-2,-1.6424328E-2,9.994275E-2,-3.2481376E-2,-6.769904E-2,-2.5587091E-2,-6.3508037E-3,9.978457E-3,1.3609474E-2,2.4040988E-2,1.7984292E-2,-5.3126182E-2,-1.7470067E-2,-7.531854E-2,-2.935107E-4,-1.26693E-2,-4.7039088E-2,-2.0740852E-2,2.3621468E-2,-3.4515087E-2,-8.819584E-2,-5.175192E-2,-2.8970623E-2,-1.3717092E-2,-3.7199575E-2,-7.906861E-3,-1E-1,-4.6090856E-3,-3.786988E-2,-7.034913E-2],"categories":[],"categories_nodes":[],"categories_segments":[],"categories_sizes":[],"default_left":[0,0,0,0,0,0,0,0,0,0,0,0,0,0,0,0,0,0,0,0,0,0,0,0,0,0,0,0,0,0,0,0,0,0,0,0,0,0,0,0,0,0,0,0,0,0,0,0,0,0,0,0,0,0,0,0,0,0,0,0,0,0,0],"id":25,"left_children":[1,3,5,7,9,11,13,15,17,19,21,23,25,27,29,31,33,35,37,39,41,43,45,47,49,51,53,55,57,59,61,-1,-1,-1,-1,-1,-1,-1,-1,-1,-1,-1,-1,-1,-1,-1,-1,-1,-1,-1,-1,-1,-1,-1,-1,-1,-1,-1,-1,-1,-1,-1,-1],"loss_changes":[3.0879907E3,1.2287214E3,8.740137E1,1.9167761E2,1.1258161E4,1.6063076E3,9.1309106E2,6.534143E1,1.2089044E2,7.8294824E2,9.404883E1,1.151759E2,1.5137036E2,5.3625305E1,6.680713E1,1.7210144E1,2.8317253E1,1.5364351E2,6.284973E1,2.8452072E2,3.008247E2,6.728613E1,3.2354907E2,1.9031781E2,4.699817E1,6.373813E1,8.348999E1,6.957303E1,9.781436E1,1.2052454E2,1.9565039E2,0E0,0E0,0E0,0E0,0E0,0E0,0E0,0E0,0E0,0E0,0E0,0E0,0E0,0E0,0E0,0E0,0E0,0E0,0E0,0E0,0E0,0E0,0E0,0E0,0E0,0E0,0E0,0E0,0E0,0E0,0E0,0E0],"parents":[2147483647,0,0,1,1,2,2,3,3,4,4,5,5,6,6,7,7,8,8,9,9,10,10,11,11,12,12,13,13,14,14,15,15,16,16,17,17,18,18,19,19,20,20,21,21,22,22,23,23,24,24,25,25,26,26,27,27,28,28,29,29,30,30],"right_children":[2,4,6,8,10,12,14,16,18,20,22,24,26,28,30,32,34,36,38,40,42,44,46,48,50,52,54,56,58,60,62,-1,-1,-1,-1,-1,-1,-1,-1,-1,-1,-1,-1,-1,-1,-1,-1,-1,-1,-1,-1,-1,-1,-1,-1,-1,-1,-1,-1,-1,-1,-1,-1],"split_conditions":[8.824075E-2,2.0201857E0,1.1745E0,-2.4116855E0,4.168769E-1,4.2068228E-1,4.0838555E-1,1.9139998E0,-2.6726854E0,2.8031855E0,-1.2806853E0,2.0879998E0,2.784E0,-4.35E-2,-2.5856853E0,-2.2619998E0,-1.6965E0,3.0449998E-1,-2.2619998E0,-2.5856853E0,-2.5856853E0,2.2620003E0,2.7840002E0,1.0746845E-1,-1.9766854E0,1.4981853E0,-1.8705E0,2.7161853E0,-1.8705E0,1.0238241E-1,2.9579995E0,-9.480593E-2,-6.22566E-2,-7.226922E-2,-1.6424328E-2,9.994275E-2,-3.2481376E-2,-6.769904E-2,-2.5587091E-2,-6.3508037E-3,9.978457E-3,1.3609474E-2,2.4040988E-2,1.7984292E-2,-5.3126182E-2,-1.7470067E-2,-7.531854E-2,-2.935107E-4,-1.26693E-2,-4.7039088E-2,-2.0740852E-2,2.3621468E-2,-3.4515087E-2,-8.819584E-2,-5.175192E-2,-2.8970623E-2,-1.3717092E-2,-3.7199575E-2,-7.906861E-3,-1E-1,-4.6090856E-3,-3.786988E-2,-7.034913E-2],"split_indices":[14,2,5,10,